this_0 -0.41371414 -0.52405274 0.8627614 0.35728195 0.392952 -0.30247498 -0.13615492 0.86337715 0.64608127 -0.82050455 0.40196538 -0.1518897 -0.08299102 0.3624998 0.036462426 0.057624295 0.38897398 0.5359673 0.13718666 0.52556914 -0.26831728 -0.15988985 -0.18731143 0.6245508 -0.25006196 0.035684474 0.794445 0.2717976 -0.19694388 -0.40127644 -0.31406564 0.5730777 -0.09726372 -0.14207464 -0.33822662 -0.57172245 -0.42135522 -0.66877925 -0.059922967 -0.27113545 -0.13322155 0.06552527 0.12661396 0.008886687 0.055229038 -0.7447544 0.15149836 -0.35392487 -0.7242678 -0.07511398 -0.009151954 0.16494608 -0.08151073 0.22249754 0.3863018 0.11732455 0.1563933 -0.5482328 0.11698441 -0.13458055 0.22798988 -0.2526617 -0.2937264 -0.74067336 0.19010061 -0.0369508 0.45212585 -0.12817559 -0.3179228 -0.0091357 0.25146025 -1.1052465 0.19731876 -0.008940734 0.11653322 0.15991722 -0.14627975 0.22304535 -0.11988941 -0.35433242 0.36330974 1.4103909 0.40227097 0.4818987 -0.104118116 0.63099325 -0.14045878 0.26796985 -0.28403965 0.9963066 -0.3678649 0.12270432 -0.2991498 0.5902072 0.107993335 -0.76216817 0.28178322 -0.085394695 1.0792952 0.06339821 -0.055476133 -0.45947438 -0.12226175 -0.09004722 0.45420748 -0.4478504 -0.10223579 0.6199502 -0.18346345 -1.412044 -0.08429432 0.49086916 0.47386727 -0.47105724 -0.4798601 0.51284707 -0.017861027 -0.66779524 -0.30691442 0.33740222 0.2816811 0.9154084 0.13058358 0.82965773 0.014167753 0.4549806 0.60817444 0.3642286 0.51752454 -0.1470895 0.28561854 0.6221378 0.49087754 0.27359906 -0.75376767 -0.26643687 0.41969818 0.23698968 -0.33179748 0.026717667 0.22479498 0.2570909 -0.7642319 -0.035783306 0.07980619 0.2086564 0.15439439 -0.7172949 0.09810813 -0.09331615 0.33782718 0.37383366 -0.52764624 -0.1808097 0.9484056 0.10845973 -0.1765706 0.13441852 0.11122496 0.3291202 0.4952527 -0.1248092 0.05497405 0.665054 -0.19274819 0.5599683 0.044664286 0.60012734 0.20061815 0.27047834 0.12897806 -0.06515462 0.88598835 -0.15769061 0.17299308 -0.5073023 0.4975535 1.012604 -0.16414051 0.40650907 -0.63170075 -0.026916035 -0.18724772 -0.05898513 0.21417226 0.3502129 0.30356956 -0.70351696 0.10847623 0.18257722 -0.6115545 0.0029475838 0.12621997 -0.34675118 0.52563804 -0.3952252 0.30812323 -0.64349127 -0.022411993 0.40105653 -0.12954488 -0.09596613 0.023102991 0.56200117 -0.36906576 0.6244876 0.36474535 -0.024944935 0.008815609 -0.06711385 -0.18903883 0.1880801 -0.8050292 -0.41119933 0.4181631 0.22097361 -0.49735853 -0.37613347 -0.3554603 -0.581515 0.8513228 0.023888886 -0.25514102 1.1479008 -0.37857914 0.7125207 -0.25281963 0.13502124 0.08996707 0.03939039 0.022616535 -0.2747961 -0.35059723 -0.37432328 0.1295958 0.42183253 0.37142128 -0.4450012 0.28602096 0.23286468 -0.40306795 0.26716477 -0.19615513 0.7394245 -0.54022443 0.068918094 -0.3116516 -0.30846426 0.026992127 -0.43954548 0.02896373 -0.1496538 0.25670785 -0.02819914 0.170767 0.23378125 -0.4228964 0.7039704 0.26272187 0.47007495 -0.21207911 0.020602219 -0.14559166 0.6242718 -0.7207807 -0.9579179 -0.7184011 0.35770324 -0.38974634 0.23872602 -0.71702945 -0.018220898 -0.59410197 -1.4330738 -0.56758237 -0.63389087 0.3221233 -0.1783663 -0.42551628 -0.7243933 -0.032555502 1.4088641 0.7526681 0.7413516 -0.2633601 -0.30720836 0.49752513 -0.59883404 -0.35354376 -0.3244484 0.03926772 0.13363469 -1.2001325 -0.06927964 0.54322827 -0.4113051 0.571661 -0.061503172 -0.020241871 -0.339473 0.13751969 -0.15656385 -0.080985464 0.2120345 -0.20954145 0.23372856 -0.5497617 -0.024402041 -4.7873673 -0.12825748 -0.95445037 0.26018587 -0.01157701 -0.5664898 -0.15578642 -0.06247543 -0.33550286 -0.48353145 0.18687648 0.011911366 -0.15565318 0.5163831 -0.21299382 0.6194307 0.5254408 0.2341415 0.26087144 0.6159991 0.43648195 -0.47827473 -0.37125832 -0.6252475 -0.3103485 1.4926417 -0.5122382 -0.3518786 -0.05709449 0.47419545 -0.30226701 0.20107591 0.08255607 0.26245096 0.1780647 -0.6764924 -0.60800487 0.03688857 0.025907809 -0.59370416 0.314499 1.0847384 0.5179334 0.22503516 0.7574532 -0.081701554 -0.25886294 -0.020953186 0.6902317 0.6513673 -0.56113 -0.40832502 0.680432 0.8086319 -0.60425144 -0.5062866 -0.2635495 -0.14497457 0.044322293 0.38657796 0.23185049 -0.97210705 -1.2618598 0.14629409 -0.5665159 -0.6073687 -0.36174238 -0.9306154 0.026642345 0.06005307 -0.5917014 -0.083002046 0.55649316 -1.4327917 0.01812428 -0.94579405 -0.40303937 0.2373257 0.62069917 -0.3643563 -0.24598269 -0.40454614 0.23825303 0.052742362 -0.0034557441 0.3450193 0.5369184 -0.4288637 -0.40026158 0.65282834 0.08251317 -0.2463896 0.7110115 -0.10053965 -0.045810908 -0.5678787 0.17289655 -1.1245431 -0.13525543 -0.17292508 -0.19606951 -0.13894346 -0.06697404 -0.060661457 0.3375454 -0.22141345 -0.3722667 0.063400574 0.39226994 0.102221675 -0.26284468 -0.8933861 0.20052044 -0.6743381 0.35249123 -0.028156169 -0.12176573 0.2600004 -0.06891622 0.21880575 0.0028178096 0.3943121 -0.81053376 -0.5507134 -1.1488655 0.31314927 -0.13357851 0.22696918 -0.9545543 -0.18385221 -0.16044933 -0.4564786 -0.5338876 0.22079827 0.48297256 0.1286968 -0.9721893 0.090415165 0.5329936 -0.80465865 0.18542963 0.090455204 0.15811498 0.7251375 0.30594745 0.18727891 0.54859126 -0.66602325 -0.22191453 -0.18904522 0.21755989 -0.19122988 0.07301237 -0.028384324 -0.14606701 0.14674324 0.82391304 0.3361759 0.24329586 -0.2868884 -0.1311805 0.82765615 0.11764519 0.36124218 1.1903459 0.37879062 -0.030197926 -0.53347653 -0.17642963 0.23970126 0.44957733 0.46165082 -0.11826894 -0.7972982 0.89562106 -0.37173232 0.3319594 -0.47715974 0.038936254 -0.012500286 0.25811133 -0.11431929 0.10555367 -0.17511123 0.65853363 -0.108741224 -0.3773795 -0.0047322838 -0.05683856 0.7098232 0.0010018907 0.11334027 -0.89466333 -0.33442143 -1.0009391 -0.821954 0.026095789 -0.17970638 0.47259548 0.0077722855 0.5074878 0.70188683 0.40139017 0.30270052 -0.24950886 0.317025 0.47152388 0.25825673 0.16267581 0.36141315 -0.39743203 -0.30057955 -0.30378798 -0.87012625 -0.10200876 -0.4641468 -0.1482593 -0.496422 -0.001455225 -0.18342008 -0.7321414 0.03733372 -0.15554763 0.21419296 -0.23118204 -0.20438874 0.10840135 -0.40579423 0.51397735 0.068367854 0.08918182 -0.6959438 0.76866496 0.6082542 0.2755035 0.6297089 -0.9650847 0.32190812 0.31500357 0.6354124 -0.47787166 -0.28189793 0.10112926 0.2424407 -0.54749465 0.018443372 -0.21729079 0.2755291 -0.1713389 0.040088616 -0.90311337 0.18932201 -0.039865144 -0.42257267 0.40521154 -0.95530146 -0.12653537 -0.46175483 -0.3187572 -0.19191231 0.013178572 0.18751094 0.13662271 0.46425572 -0.35081413 0.42292193 -0.15942642 0.054936185 0.25367182 0.34186724 -0.9469918 0.24233477 0.3067069 0.13355172 0.06295208 -0.14201547 -0.13637267 -0.43573126 -0.87628776 -0.18984236 0.585795 0.89817184 -0.08222085 0.12569293 -1.0509272 0.24724782 -0.9540222 -0.29927653 0.7231092 0.13293268 0.18252382 0.26528963 -0.14766817 0.72928375 0.28313142 0.26080522 0.25669068 -0.50742745 0.29793602 -0.13662845 0.18002953 1.1166165 0.47195977 0.912857 -0.013926931 -0.10492672 0.24713191 0.5639039 -0.24788696 0.25601754 0.2589458 -0.70602375 0.27327317 0.31014955 0.37193555 0.16362049 0.39965928 -0.12493168 -0.68326855 -0.25469187 -0.18755446 -0.21874145 0.049401168 -0.4941985 -0.16666718 0.7456447 -0.5383765 -0.40596527 0.22183907 -0.24440248 -0.25480318 0.78435516 -0.24740079 0.44494376 -0.28713673 0.07599113 -0.36812305 -0.39883733 -0.41721448 0.06452205 -0.19068807 0.38090533 0.6961814 0.1910854 -0.44921327 0.0137305 -0.25314438 0.7726519 0.48842546 0.1543416 0.29868054 -0.21885093 -0.20496255 -0.6926853 0.15584221 0.86936605 0.65064883 0.020434173 0.21882907 -1.127233 0.21384074 0.33237845 0.86118484 -0.25906944 -0.3635105 0.49947864 -0.11604655 0.08610307 -0.0121586695 0.2371787 -0.31220746 0.7629488 -0.007797051 -0.196451 0.09405303 1.1930218 -0.042876147 -0.2728509 0.33413583 -0.17213038 0.65681165 0.025145117 -0.05407704 -0.73707414 -0.2398818 -0.29036623 -0.077699706 -0.07174729 1.0521897 -0.49184912 0.09328398 -0.7690228 -0.05966751 -0.21893734 0.36360562 -0.51760316 0.34766078 0.0318898 -0.19874477 0.108468674 0.4592821 0.714158 -0.030657899 -0.15000188 -0.56250006 0.79936284 -0.495905 0.7188382 -1.26311 -0.3012546 0.6436572 0.28121325 -0.6145121 -0.57471025 -0.26359463 -0.14899531 0.7629456 -0.5437368 -0.36027446 0.201044 -0.55517775 -0.337222 0.35545132 0.2580195 0.30580872 -0.0011445358 0.18553334 0.23455873 -0.39518517 -0.7980468 0.1305629 0.9256183 0.8256688 -0.022357248 -0.73736113 -0.3030947 0.5486992 0.023447435 0.030328395 -0.49654263 -0.101407975 0.35987613 0.59146154 0.15986711 -2.3622172 -0.20247996 -0.6411044 -1.2381988 0.29382882 -0.29511598 0.8931792 -0.5999363 -0.00015396625 -0.18974149 0.040806733 0.9248328 0.035853315 -0.4288445 0.8078898 0.37945962
hardware_0 -0.14303528 0.05532121 1.1596926 0.4513622 0.750915 -0.12103915 -0.740369 0.5908556 0.8373314 -0.40778413 0.7245265 0.2170364 -0.14330128 0.432826 -0.5545703 0.028681085 -0.06337087 0.044193335 0.025209885 0.5937503 -0.18221949 -0.10550648 0.50874543 -0.26795116 -0.8233818 0.5336846 0.35779348 -0.48576248 -0.46543333 0.13993758 0.6750702 0.20778392 -0.38929176 -0.09719097 0.0052638575 -0.69192374 -0.61595094 0.24959274 -0.30980554 0.16780372 -0.4543784 -0.27667883 -0.04611555 0.4146951 -0.18514659 -0.22329563 -0.17865875 -0.19965914 0.27884996 0.17907074 -1.0626376 -0.113150634 -0.4146875 0.26573732 0.94729626 -0.031035632 0.0899073 -1.1227506 0.46171427 0.114025 -0.18893966 0.03723292 -0.375092 -0.68207854 0.21659467 -0.005555507 0.29020357 0.03182363 -0.6520126 0.2123006 0.15178956 -0.1068839 -0.16357033 -0.4895205 0.124984816 -0.03609731 -0.3665576 0.24264652 0.29920417 0.062131472 0.2708691 0.65471506 0.59407556 0.7037271 0.06334844 0.60803837 -0.11509537 0.097840875 -0.6141289 1.1197845 -0.3139338 -0.16404054 -0.3676355 0.60577226 0.17519183 -0.61889 0.07254416 -0.21670339 0.018234577 0.4194615 0.31427437 0.60703236 0.14502037 0.47728437 -0.15746848 -0.26887155 -0.47027624 0.47966015 0.2388124 0.32372132 0.01806337 0.17465952 0.15440115 -0.39635515 -0.36631393 0.12993145 -0.33304375 -0.5233449 -0.18922883 -0.18068115 1.0373043 0.63859797 0.3697508 0.98390406 -0.11541244 0.19950342 0.08341354 0.6156343 0.25377795 -0.11034029 -0.023245847 0.43280092 0.6588675 -0.36555958 -0.26475647 0.16912171 -0.2911999 -0.17188719 -0.08092268 0.2537048 -0.3399932 0.5540043 -0.080825076 0.65645087 0.63100505 0.35161877 0.48690844 0.11576526 0.073725134 -0.130852 0.026891634 0.577735 -0.593427 -0.5368103 0.26708642 0.14292914 -0.35409528 0.110163905 -0.118268214 -0.21350236 0.6535075 0.36534992 -0.600548 -0.6607845 0.58298206 0.6854841 0.92641866 0.9040919 -0.24022382 0.5312085 -0.20245251 0.15424393 -0.3946732 0.054691028 -0.15848589 0.11416482 0.49393997 0.9249232 0.3282467 0.28241205 -0.5843427 0.90980905 -0.14546815 0.049720325 -0.29930228 -0.3119783 1.2557079 -0.5784705 -0.30392033 -0.571508 -0.6025588 -0.8027333 0.030131485 0.45909578 0.14571188 -0.83909327 0.5773055 -0.7707115 -0.19763432 0.12193776 0.33955285 -0.17900336 -0.29405105 -0.057764772 -0.47042212 -0.21045433 0.2326999 -0.47058344 -0.58698934 -0.21752785 0.2529243 -0.9705767 -0.64509976 0.39974713 1.0329558 -0.22782147 -0.32318595 -0.8166373 0.2971294 -0.22543472 0.6251398 -0.28404614 0.24053901 0.4830067 -0.466849 1.2098649 0.27905497 -0.48513925 -0.5409002 -0.34819195 0.18179125 0.5537472 -0.50905275 -0.8781734 -0.4433627 0.20728524 0.03801798 -0.0046942346 0.34598795 0.18294713 -0.57605815 0.17352483 -0.3115047 0.033115096 0.52900016 -0.32409906 -0.22209458 -0.7244777 0.40278986 -0.7348059 -0.18123633 -0.5472301 0.40705842 -0.03912836 0.49986732 0.6395876 -0.360762 0.15725827 -0.6261311 0.26104477 0.03472268 0.15371385 -0.47718993 0.2968912 -0.4884987 -1.0486573 -0.3317967 0.33773455 0.003644942 0.17001456 -0.6784312 -0.48576078 -0.72515893 -0.13955154 -0.82622755 -0.53078866 0.3133578 -0.21367712 -0.42289874 -0.5878026 0.2763823 0.83568525 0.42574915 0.19258118 0.16927363 -0.36417413 0.48402494 -0.73705816 -0.4517585 -0.5753557 0.3191307 0.46112567 -0.50871915 -0.0944117 0.7786793 0.24903223 0.25043494 0.17828752 0.3683647 -0.30258378 0.14700112 -0.21965373 0.48030865 0.17123961 -0.57029796 0.14176512 -0.4611333 -0.33076972 -4.7108345 0.54770714 0.074063 0.21572043 -0.3614251 -0.40235147 0.7511128 0.508623 -0.16838507 -0.39918292 -0.08146856 0.23882462 0.21831432 0.37475786 -0.23555031 0.251491 -0.13088554 -0.5818251 0.42804134 0.026638232 0.4264604 -0.63191587 -0.056283146 -0.17517132 0.6584722 0.8816342 -0.5995714 0.3246851 -0.21873501 0.049046695 -0.85354066 -0.11170671 0.56046236 -0.5233347 0.13170244 -0.806942 -0.26932502 -0.2677232 -0.1693031 -0.43632287 0.4254244 0.17262352 0.22373056 -0.33020812 1.119508 -0.7159737 -0.2923806 0.18356319 0.04753692 0.5349014 -0.1564398 -0.15468535 -0.4767946 -0.18822858 -0.8290692 -0.80840284 -0.1489034 0.59194255 -0.28986567 0.40365782 0.09121263 -0.37587482 -0.5395496 -0.9688139 0.2135982 -0.2998937 -0.57757807 -0.4744044 -0.012748244 -0.23397653 -0.4757341 -0.025477659 -0.5509333 -1.5598305 -0.002976723 -0.13528708 -0.506062 0.44412923 -0.07437155 0.39215475 0.21469572 -0.72590125 0.784133 0.2504065 0.23760095 -0.025325084 0.101935685 0.015984628 0.28801972 0.26516137 0.5707196 -0.50503653 0.41811913 -0.1667585 0.10885798 -0.2916194 0.37709278 -0.40743846 0.30415303 -0.25687313 0.37254182 0.009960949 -0.29996616 -0.4467855 -1.0029387 1.1054949 -0.9142621 -0.014918856 0.87511903 0.52316135 -0.01456468 -0.6724563 0.38807482 -0.4303099 0.039215036 -0.04914343 -0.36194566 0.48465818 0.61359704 -0.114024445 -0.022785325 0.5102701 -0.26509327 -0.60149455 -0.68463266 -0.07240238 0.30135104 0.49629214 0.12445307 -0.26001891 0.16908489 -0.29665378 0.55340886 0.5750321 0.22336343 0.031191895 -0.24407573 0.038916834 -0.3357476 -0.8311921 0.22508395 0.2807461 0.3544847 -0.721876 -0.05709317 -0.15842403 0.064691335 -0.15952793 -0.88072705 -0.0832634 0.09661736 0.663546 -0.38451648 -0.073233455 -0.998088 -0.052722786 0.5067176 0.14283654 0.0598722 -0.8226901 0.22670153 1.1789191 0.3310909 -0.080970325 0.53473026 0.9260088 -0.38825268 -0.15351313 -0.35766244 -0.04333364 0.06585797 0.09991107 0.45498484 -0.0669612 0.71050113 0.39368987 -0.10402311 -1.013936 -0.44495827 0.15481007 0.50940406 -0.2991851 0.02507245 -0.23280033 0.5171615 -0.5970137 -0.39292702 0.045478515 0.113352835 -0.23483947 -0.2749331 0.8373397 -0.39509824 0.11041932 -1.1394765 -0.7281022 0.5015342 -0.17191862 0.18704608 -0.64700615 0.13735215 0.35421804 0.39787722 0.24044651 0.26422733 0.018206835 0.6478565 -0.362212 0.52522576 0.4424463 -0.55642015 0.037989452 -0.10566403 -0.43126982 0.23793001 0.37315822 0.063817695 -0.20684412 -0.35264924 -0.4530966 -0.9265247 0.36364597 -0.10845899 -0.032347355 -1.2514482 -0.006741494 0.298072 -0.14523852 -0.17781827 0.55064815 -0.35254988 -1.2643253 0.73331535 -0.45960626 -0.30086413 0.20652115 -0.6544556 -0.00719612 -0.043678254 0.06873778 -0.78248495 0.020788247 -0.40253258 0.42307892 -0.22115517 0.59590346 -0.28541902 0.13330469 -0.7502042 0.22726381 -1.1144781 -0.38512078 -0.76975465 -0.6733774 -0.11849873 -1.2825627 0.048157983 -0.2891401 -0.47958565 -0.28296417 -0.09106491 -0.18597482 -0.443217 0.69539976 -0.535849 0.20355862 -0.12290424 -0.079937175 0.6000507 -0.0099095665 -0.3396226 0.038213696 0.38118383 0.6001489 -0.680872 -0.74926215 0.44693905 -0.55182266 0.5568511 0.1800927 -0.52933306 0.29293776 0.18211332 0.25391477 -0.6177776 0.7894051 -0.76155615 -0.33541656 0.3573761 0.22354713 -0.12682615 0.344927 0.08238115 -0.8285129 -0.20028523 -0.04121051 0.40817773 0.27499062 0.45618045 0.3181791 0.45908064 0.6342561 0.26648232 0.28440094 0.061205953 0.064502634 -0.29097885 0.16127071 -0.013246455 -0.26911074 0.24763301 0.008909829 1.0004483 0.85734296 -0.9334284 -0.024824716 1.1506438 -0.035477437 -0.5022069 -0.11996576 -0.3042608 -0.10542395 0.5159649 0.09449362 -0.5252167 0.99797785 -0.07073271 -1.1121174 0.15586524 1.3170975 0.45582286 0.2884003 0.04687933 0.40653884 0.504985 -0.10894293 0.11981523 -0.26186216 -0.6943827 0.81067944 0.6184847 0.12620129 0.429118 0.9005902 -0.44246864 0.09619628 0.46842873 -0.1960748 0.46934566 -0.34233883 0.21727616 -0.043701407 0.057083525 -0.9538088 0.5206137 0.9898895 0.3522107 -0.20719798 0.37240544 0.7230489 0.33337152 0.5926292 1.1013108 -0.71520984 -0.3804193 0.59831995 -0.25229388 -0.5892199 -0.10537839 -0.32225084 -1.0937585 0.40374267 0.36145782 -0.62042063 0.5707458 0.078808196 0.32285953 0.29623583 -0.4727307 -0.15788633 -0.55576855 -1.2094318 0.09721114 -0.28882146 -0.06491263 0.32632336 0.7923017 0.022333153 0.76307184 -1.3087984 -0.1781415 -0.26762158 0.24321756 -0.6754398 0.27653348 -0.763381 -0.05854505 0.63313216 -0.21645916 0.3828792 0.1243978 -0.12227757 -0.109247744 0.66254026 0.07315321 0.46660897 0.49242058 0.47002116 -1.526712 -0.29178718 1.0510345 0.4592006 -0.19482279 -0.83308375 -0.22870877 0.116126925 -0.081762776 -0.091917455 0.092298545 -0.3479713 -0.25702316 -0.7449102 1.1370618 0.394071 0.8144864 -0.70496017 0.4568842 0.18213965 0.24687643 -0.44805872 0.48240846 0.51421064 0.29483703 0.666644 0.47710907 0.24912575 0.05447653 -0.24180429 -0.3889545 -0.58316964 -0.088456854 0.11473771 0.30551168 0.4856689 0.5749254 -0.29822326 -0.62844515 -0.5993618 -0.512037 0.109185666 -0.19471943 -0.04989843 0.14742434 -0.13171984 0.07845169 0.90485305 0.46505225 -0.14221087 -0.16193394 0.23187292
seems_0 -0.29185757 -0.45730308 0.60644376 0.54655373 0.6388712 0.50059503 -0.07181705 0.8702426 0.08681517 -0.76039004 1.0095862 -0.40809163 -0.27094552 0.120429546 -0.5369843 0.2557294 0.37112424 0.15829077 -0.094083086 0.5384095 0.46869805 0.58902025 -0.0750404 0.22949472 0.1962084 -0.013057629 0.9075411 -0.26074672 -0.4151683 0.32643184 0.7592286 0.32518038 0.0407452 -0.10195345 0.32312843 -0.6161045 0.28548744 -0.2750603 -0.58641243 -0.32682264 -0.92283136 -0.16043524 -0.19715692 0.79261774 0.18453896 -0.6938288 0.41468024 -0.33971074 0.36491144 0.011186026 -0.77906084 -0.69310904 0.7770364 0.4305045 0.65583473 0.4240116 0.14093818 -1.0172887 0.12284455 0.1683949 0.39812768 -0.8207075 -0.46518207 -1.1518282 0.5312644 0.19827299 0.098096006 0.34519288 0.31782085 -0.20446137 0.39837316 -0.14834416 0.66506934 0.07442883 -0.59396046 0.53260535 -0.26215345 0.6363385 0.25308007 -0.099231124 0.10920721 1.7638044 0.10423722 0.15788174 0.15827447 -0.0056104288 -0.3200016 0.35829398 -1.0400361 0.7924137 0.39494228 -0.80059993 0.28846255 0.19142573 0.5803526 -0.097760186 0.5448811 -0.05733239 0.40502045 0.029685125 0.3089476 -0.6980084 0.23613013 -0.19314341 0.5466274 -0.23537648 0.11754867 0.38501585 -0.18924057 0.5000772 -0.37161115 -0.11705083 0.56661254 -0.33789107 -0.90647656 0.06426256 -0.390421 -0.29451394 -0.47597325 0.20847492 0.1049885 0.3109538 -0.36000964 1.2987857 -0.1661029 0.28893042 -0.52552366 1.1531215 0.13509122 -0.3659119 1.1772664 0.20832978 0.7127097 0.49860045 -0.8230519 0.25260603 -0.36999717 0.42080906 -1.7542927 0.03591171 0.48951453 0.5758852 0.60425144 -0.32620168 -0.38714805 -0.10126438 0.86255693 -0.19023436 0.10133526 -0.54498935 0.120555945 0.2625455 -0.28345555 -0.5646161 0.18816063 -0.6968224 -0.2877222 0.1339181 0.2630503 -0.0891932 -0.29013574 -0.78172606 -0.15406732 0.28346083 0.062024683 0.6601135 0.2012694 1.0098518 0.47920802 -0.39247286 0.104512475 1.0908774 0.52573067 -0.52721554 0.6690592 -0.5595772 -0.37220562 1.2756516 0.47071967 0.78411347 -0.19631378 0.05197957 0.15326376 -0.11028408 0.62686735 -0.2425114 -0.07134942 -0.24684021 -0.043881938 -0.21770379 -0.36584133 0.19910118 -0.64138126 -0.62532246 -0.3028366 -0.36990017 0.11582058 -1.301655 -0.61485356 -0.56649333 0.57491183 0.06589292 0.3035199 0.2675543 -0.36640388 -0.39589298 1.0106082 0.28785706 -0.586531 0.27196598 -0.25826856 0.8066097 0.01203277 -0.43162906 0.17752767 0.13858147 -0.1685825 -0.37947026 -0.24947579 -0.38684443 0.1664111 -0.080268584 -0.6963702 0.90420145 -0.4370935 0.5302671 0.36856785 -0.4415344 -0.014739772 1.0812044 0.049452737 -0.2609809 0.52213156 -0.29702792 -0.60397005 -0.1146399 -0.6910661 -0.13230248 0.02189759 -0.7193197 -0.64832747 0.7029702 1.0745304 0.07387315 0.27766448 -0.17464966 -0.53191966 -0.09987526 -0.5344337 -0.72088706 -0.8252199 -0.44491082 0.5583376 0.054247223 -0.4540504 0.028329238 -0.34664065 0.42556322 0.3085808 -0.15735587 0.51576287 0.08378551 -0.8027883 -0.1624253 -0.30008417 -0.7784135 0.4001711 0.6699015 -0.050289918 0.5709576 -0.11198604 -0.4083315 -0.08554315 0.8116237 -0.20091863 -0.45642242 0.02076134 0.32446593 -0.30195007 -0.81342995 0.35697868 1.3932316 0.12779406 0.45826808 -0.48337522 -0.12509133 0.040118746 -0.7077482 -0.9197369 -0.95770496 0.10494088 0.14512183 -0.36059746 -0.653919 0.2810369 0.33635354 -0.03445579 0.7752966 0.180633 -0.69505763 0.16470045 -0.74318725 0.7206709 0.49694464 -0.56052446 0.18012333 -0.36677617 -0.06310599 -4.0389185 -0.17169449 -0.38570136 -0.022165053 0.8938092 -0.8074622 0.043294135 -0.13134909 -0.79428697 -0.16174415 -0.3616232 -0.7823966 -0.017026743 0.030421223 0.38551322 0.2807681 0.348859 0.014127016 0.40615153 0.7684165 -0.124281004 -0.27388835 0.4642232 -0.62440515 0.7833928 1.0020474 0.032586526 -0.12175701 -0.06036066 -0.29813012 -0.90956414 0.119872056 0.15809377 0.39660978 0.069494 -0.236236 -0.559847 -0.78528214 -0.19663616 -0.6834488 0.08134117 -0.022879494 -0.20849174 0.41642198 0.77678686 -0.35307527 -0.17172073 -0.46174514 0.64103276 0.4528882 -0.13313094 -0.574077 -1.3044107 0.22419144 -0.5085412 -0.10312012 0.21577448 0.6468302 -0.41894102 -0.28813255 0.55643153 -0.40360144 -1.1830671 0.19477482 -0.3296283 0.37531328 -0.5306717 0.20530528 0.3246421 0.06484516 0.5737493 0.009731442 -0.13470876 -1.4611334 -0.1627432 -0.5370161 -0.45021674 -0.31081912 0.027892586 -0.92133653 -0.018303446 -0.6334555 0.8304527 -0.68258655 -0.55956876 -0.19727603 0.026180336 0.117250636 0.123779066 0.003867425 0.5187786 -0.21665794 0.23011482 0.1898829 0.33669284 -0.7321489 0.09005538 -0.4499733 -0.26319003 0.33970737 0.44536692 1.3713441 0.8109631 1.1607367 0.9386736 0.777269 -0.2630024 0.05476495 0.40044668 -0.34071627 -0.07408888 -1.6035953 0.49303183 -0.49652463 -0.40668157 0.07980995 -0.08441123 0.55383754 -0.20946962 -0.38394246 -0.12282728 0.408447 -0.2696409 -0.44873753 -1.4622082 -0.5357633 0.58083785 -0.42075902 -0.8066742 0.12160635 0.34540892 0.20573905 -0.031202663 0.6552829 -0.08384319 0.6458572 -0.10577381 -0.32682484 0.057485327 -0.41031492 0.008680129 0.6146961 -0.5398355 -0.08694349 0.12459931 0.51961416 0.7088361 0.13719499 -0.22605956 0.3330236 0.19777392 -0.48018283 -0.37679672 0.40443623 0.2359081 0.050489195 0.39420384 0.15789369 -0.5656611 -0.60311604 0.24487033 0.8485823 0.22229181 0.6249683 0.6969404 0.99951565 -0.20938572 0.44187045 0.27401406 0.81923485 -0.4066537 0.24985701 -0.76596546 -1.0381088 0.5479193 0.37869298 -0.049636 -0.4537938 -0.6470891 -0.3103007 0.3390445 -0.28982583 -0.53526217 -0.42361346 0.18286723 0.2849023 0.028926663 -0.31576815 0.3628758 -0.2311753 -1.5875366 -0.009698136 -0.369739 0.16294271 -0.8720646 -0.7697722 0.33729175 -1.001808 -0.15580022 0.38900912 0.44848895 0.18889113 0.72437644 0.4146045 -0.6296493 0.7564154 0.48426408 -0.4375804 0.13434812 0.11777911 -0.28130135 -0.59406257 -0.19126074 0.11744069 0.1475007 0.12859164 -0.21214329 -0.53358275 -0.5059593 0.3903339 -1.185547 -0.18127692 0.21037339 0.33075833 -0.8056393 -0.8848876 0.07318411 -0.25170517 0.45253205 -0.55277944 -0.07735096 -0.32844445 0.22085637 0.23291174 -0.83294344 1.5852625 -0.95534223 -0.21868418 0.16776757 -0.07251834 -0.74748474 0.35359165 0.29007363 -0.100988984 0.31405377 0.12022559 -0.06208275 -0.17954391 -1.0050972 -0.49390355 -0.29904118 0.7263734 -0.027850254 -0.07241113 0.57021713 -0.92242926 -0.4604968 -0.60604435 -0.85080963 0.08434206 -0.29889104 -0.061554946 -0.26032835 -0.40315473 0.36017418 -0.15163597 -0.10363813 0.73295677 0.091919705 -0.5728877 -1.3276418 0.4597601 1.1377748 -0.1466595 -0.7548115 -0.17807087 -0.5397617 -0.8792411 -0.67839396 0.4894465 -0.5457298 0.66659784 -0.51671726 -0.2955693 -0.017560408 -0.025370877 -0.7507341 0.9300571 0.13161416 -0.06643239 0.1911793 0.98953 -0.46129468 0.24935907 0.75607306 -0.55758953 0.68772995 -0.4029153 0.46888864 -0.055957187 0.19765294 0.2488835 0.56727815 0.12855798 -0.4433064 0.28134605 -0.2919113 0.05623799 0.4564967 0.57277703 0.021369256 -0.3588443 0.8793611 0.79653573 -0.16467011 -0.7760884 0.5063435 -0.5671491 -0.37204453 0.25326234 0.48382366 -0.34151006 0.70049 -0.48791412 -0.63233453 0.65232563 -0.48987114 -0.42719823 -0.04961648 0.57223284 -0.1629477 0.19135977 0.56315166 0.27043232 0.13108496 -0.6860548 0.3217931 0.41932562 0.5514136 -0.70969903 0.28080797 0.046962783 0.9538229 0.17920734 0.22162652 -0.30280402 0.18317825 0.16477107 0.35212985 0.9297008 -0.4744096 -0.17084461 -0.52542454 -0.20188881 0.54867667 0.07051214 0.45459172 0.30449015 -0.26125854 0.7898516 0.653726 0.5621851 0.016773352 -0.8298986 -0.78690296 0.5511071 0.11383842 0.12615184 -0.28242365 -0.247788 -0.5333194 0.6547192 -0.056032795 -0.17845355 -0.46599656 0.76221555 0.18199015 0.010166969 -0.16039209 0.11390786 -0.26749817 -0.26356077 -0.6209639 0.2366441 -0.47888175 0.031829968 0.41868657 -0.6676848 1.244067 -0.32826835 -0.067105904 -0.5445194 0.78981495 -0.4290087 0.1242056 -0.6475398 0.6913264 0.26928303 -0.2283428 -0.33182022 0.13777614 -0.3832045 -0.07364452 0.6737219 -0.15682194 0.104275234 -0.26408654 0.9542978 -0.7935091 -0.22734848 0.46980444 0.8148533 -0.9976903 -0.6428816 -0.041516975 -0.1535847 -0.4419359 -0.5195415 -0.10088078 0.38604665 -0.69707537 -0.2817283 -0.010034163 0.33561215 0.29425 -0.21376501 0.55353534 -0.13199595 -0.6791938 -0.5133964 0.24010488 0.5549049 0.40361866 0.74229544 -0.40421465 -0.2685092 0.22709061 0.41494465 -0.827412 -0.11563577 -0.44270775 0.6010384 0.43077102 -0.82864887 1.0418655 0.31627703 -0.78334683 -0.3726096 0.14581898 -0.36835197 -0.36535987 -0.18616831 0.12585136 -0.53347445 -0.04476747 1.1099546 0.7245996 -0.3069584 0.18424559 0.084206924
to_0 0.3210279 -0.93061876 0.6115298 0.18600132 0.5147471 0.22095644 0.6111858 0.124969736 0.6299429 -0.13799375 1.1854175 -0.6699384 -0.30113333 0.48412257 0.11660607 0.7376439 0.14462067 -0.12493269 0.78637666 0.9484489 0.05209852 0.55284315 0.15808158 0.48542586 0.30820015 -0.17911804 0.31087586 0.27116442 -0.75420856 0.50426126 0.89263415 0.59644276 -0.43946716 -0.38605195 0.07138452 0.0963487 -0.0021404512 -0.8077202 -0.16228518 -0.7983047 -0.28277087 0.23360464 0.24167001 0.61959183 -0.5474783 -0.4430601 0.095894575 -0.21442035 -0.33082962 -0.21440437 0.056094486 -0.25088546 -0.22755405 -0.024065241 0.5496622 0.09975129 -0.66620797 -1.1046537 -0.59153104 0.023478493 -0.05467007 -0.7471395 -0.65856093 -0.8977951 0.09794218 -0.19788532 -0.4273935 0.10207549 -0.07863179 0.3246279 -0.40531996 -0.17135417 0.25759983 -0.51184154 -1.1439734 -0.3060101 -0.6473221 0.6571554 0.43102312 -0.3489011 -0.37056643 0.5349365 -0.11841965 0.20084177 -0.06720468 0.27733684 0.55726403 0.046722516 -1.1893727 0.8808046 0.18978858 -0.7419388 0.6708436 0.63437766 -0.10054645 -0.31423306 -0.48744816 -0.33960363 0.64820844 0.62832063 0.69075215 -0.9540547 -0.35840702 0.26253432 0.19196483 0.029316124 0.19766407 0.2483472 -0.16724123 0.8015193 -0.95881426 -0.02808236 0.17934991 -0.62244946 -0.21118279 -0.33196557 -0.2967646 -1.0614166 -0.4876553 -0.08823264 0.34767616 0.491316 0.1273176 0.3868292 -0.084095195 0.6509387 -0.71735454 0.30007115 0.46813154 -0.2480977 0.62747204 0.8947371 0.958778 -0.17601006 -0.58497137 0.38977307 0.019162007 -0.14194295 -0.9603848 -0.042996086 0.05135505 -0.028755726 0.5608949 -0.33925503 0.11369156 -0.7042424 0.40359548 -0.0078045297 -0.41550612 0.46043465 -0.419904 -0.28029838 -0.40450138 -0.07144821 0.15538067 -0.5964104 -1.2622411 0.040949613 0.19437933 0.11366734 0.060695805 -0.2045367 -0.088264756 -0.20605358 0.7706018 0.25544712 0.50407386 0.7103595 0.63409007 0.3956704 -0.27057603 0.31115595 1.4378409 -0.22047885 0.17996709 -0.7991026 -0.08819967 0.78240913 0.14266646 0.43437138 -0.3219325 0.4745074 0.3751699 -0.6288494 0.20668025 -0.16962375 -0.44635746 -0.31479046 0.65909827 -0.42866653 -0.7893026 -0.27124467 -0.60479146 -0.50404614 -0.07571894 0.20478082 -0.07719948 -1.0691116 -0.6980853 -0.24673913 0.51039946 0.21178058 0.86270213 0.16217212 0.1479024 -1.0954599 0.39876077 -0.06738225 -1.1678052 0.3512177 -0.747252 0.19561401 -0.10542616 -0.15060784 0.442698 0.245729 -0.99119973 -0.4805393 -0.67115927 -0.6817622 0.5714547 -0.20186722 -0.85440195 0.16517769 -0.10638499 1.1508265 0.1140321 -0.4221602 0.37984294 1.3180335 -0.17406856 -0.9311708 0.43176448 0.23627366 0.0022115037 -0.67131335 -0.41201302 -0.117609024 0.7151945 -0.18321644 -0.68790734 0.08501054 0.048646808 0.33044553 0.41322717 0.4876615 0.43096113 -0.11311667 -0.16333833 -0.31335643 -0.39271212 -1.2924502 0.42582542 0.23517504 -0.25574714 0.6265466 -0.5374855 0.38877174 -0.08801511 0.6062167 0.60740966 -0.09273274 -0.34159595 0.22931348 -0.8675781 -0.6974377 0.13255908 0.2014415 -0.34654018 0.2684623 0.11852445 -0.087005116 0.7817994 -0.07142124 -0.3113177 -0.43326777 0.00047642738 0.24602447 -0.38415328 -0.5061597 0.68115354 1.3810136 0.66139567 -0.37088433 -0.04068634 0.22304744 0.60431755 -1.5160494 -0.76151913 -0.38734704 0.64731145 -0.26586723 -0.25802264 0.3068675 0.53287065 0.036265694 0.4759257 0.34143972 0.22813849 -0.58916587 0.68382305 -0.63883716 -0.22040325 0.5031518 -0.43018597 0.19890773 -0.31610423 -0.8687896 -4.574457 0.15156484 -0.49574518 -0.21170808 0.46369386 -0.45457953 -0.16996036 -0.68075085 -0.5581711 -0.30755427 -0.18631466 -0.2952845 0.06932796 0.12330298 0.031545803 0.74442685 0.44235903 0.046667255 0.3429485 0.3247016 0.0003799647 -0.44466418 -0.25062034 -0.43629614 0.36734962 1.1238612 0.19138871 -0.35050178 -0.664348 0.09108625 -0.8834548 0.33476803 0.11899066 -0.22916302 0.22942485 -0.36899576 -0.28550643 -0.01246988 -0.1259456 -0.496896 0.24069355 0.5458285 0.19022307 0.2655653 0.85654545 -0.07294806 0.02867016 0.012394568 0.6777214 0.6981555 0.18265766 -0.22338276 -0.40781304 0.38575312 -0.11646102 -0.19716528 0.7101128 0.34909794 -0.2965201 -0.689747 -0.21736033 0.02868626 -0.24237211 0.22236368 -0.8804766 -0.48919725 -0.20192298 -0.33453467 1.1014864 -0.37264603 0.27700683 0.65623355 0.4485399 -0.8629169 0.47263673 -0.29213014 -0.8095866 0.22839767 -0.17303358 0.2928625 0.09143907 -0.7529938 0.2751916 -0.11112617 0.14314237 0.02651786 0.22052363 0.0019509508 -0.4565284 0.037793927 0.63038206 -0.5651987 0.52640945 -0.41135457 0.31729537 -0.2219252 0.9569609 -0.414919 -0.2703867 -0.14817393 0.18179175 0.25620824 0.39961958 0.39432812 0.41888925 0.11558673 -0.6444125 -0.013383485 0.26612926 -0.30712318 -0.3355621 -1.3410448 0.62585187 -0.38412726 0.52197015 0.18557855 0.7068749 0.6902398 -0.112912565 -0.9567556 0.24207443 0.87947905 -0.1901964 -0.72551835 -0.7174595 -0.4579561 -0.14371553 0.2591472 -1.0163904 -0.56734407 0.020608887 -0.43132874 0.0006661583 0.4720744 -0.4202903 0.49685615 -0.655897 -0.7402872 0.32252434 -0.07860562 0.1665227 -0.19797787 -0.5201043 -0.21278954 -0.72738296 -0.3201901 0.6319586 0.32446572 -0.6268555 0.19914947 0.43885255 0.061057135 0.33810174 -0.09447046 0.15379463 0.469469 0.22474433 1.137693 -0.41120955 0.15936601 0.26628873 0.23791492 0.83143646 0.18581653 0.53667873 1.0609077 0.067554034 -0.20706317 -0.1406776 0.5078033 -0.12475814 0.10331056 0.1310664 -0.7430846 -0.07140688 0.2609287 0.20928608 -0.1779839 -1.0535308 -0.40115613 0.47427002 0.010851471 -0.35040528 -1.0188174 0.70285356 0.36859593 0.49357858 0.01605568 0.39306208 0.31460628 -0.4684143 0.14976142 0.13843787 -0.13860065 -0.88834345 -0.28706607 0.92736727 -0.5841048 -0.21593462 -0.031444073 0.06321699 0.40509057 0.39913538 0.123686396 -0.10201792 0.26770234 0.49913055 -0.23064302 -0.5567014 0.54995644 -0.5848947 -0.363965 0.34428334 0.27775168 0.17869025 0.086042345 -0.038231112 -1.0311939 -0.1930479 0.45194575 0.08928324 -0.8338236 0.60800844 -0.56625533 -0.1337778 -0.1402708 0.5798273 -0.22198167 0.05185211 0.042351376 0.30302733 -0.6719294 0.41487426 0.2580537 -0.52301425 0.5404657 0.004454825 0.08743691 0.021490917 0.084211744 -0.79285306 -0.22738904 0.1853023 0.08266594 0.0937561 -0.08710754 0.13581274 0.31156144 -0.37303025 0.48372832 -0.291184 0.32683384 -0.50470245 -0.14898965 0.18350877 -1.196386 -0.9003983 -0.39273107 -0.6724788 0.35081476 -0.3955237 -0.88632214 0.112076074 0.1819892 -0.074961856 0.3204424 -0.18868358 0.5523742 -0.044762567 -0.626344 -0.31693938 -0.23001255 0.39585343 -0.32696107 -0.06817336 0.03820546 0.37924117 -0.8644268 0.4730115 -0.31909597 -0.43934116 0.34804872 0.5625892 -0.28256306 -0.70769984 0.3030428 -0.5194484 0.061548784 0.06333966 -0.5614118 -0.04161719 0.26195043 -0.21942073 0.53701 -0.25389457 -0.0022240244 0.6357872 -0.010536497 -0.20064811 0.35641629 -0.087505616 -0.21603724 0.010320414 1.032966 -0.056275733 0.09798504 0.23014577 -0.25468758 0.7112406 -0.19754732 -0.16448443 -0.250872 0.49443328 0.36979416 -0.114846766 -0.53623563 0.16692859 -0.67015153 -0.74947774 -0.10571797 0.7403311 -0.77939 0.29851305 -0.38626403 -0.13513996 0.87381256 0.21491489 -0.21245867 0.10141628 1.049086 -0.2971271 0.66842145 -0.32738024 0.43624896 -0.9088342 -0.50074357 -0.10595667 0.04987706 0.43899167 -0.20766434 -0.63667256 -0.28798792 0.5646784 0.40047443 0.09969778 -0.46748492 0.21094936 0.18329363 0.88806427 0.23164602 -0.29476154 0.23972437 -0.050576575 -0.019697838 0.33040226 0.16498436 0.20954603 0.2560888 0.48806304 1.346275 -0.045049854 0.74295145 0.9159911 -0.4642171 -0.50147235 -0.18823878 -0.02986041 -0.17091839 0.07762277 -0.54071116 0.73164546 0.5418547 0.28351754 -0.6142885 0.06419736 1.0853195 -0.42241877 0.3981938 0.16754444 0.5348555 -1.0671111 -0.14492327 -0.35304627 -0.44806376 -0.090224355 -0.40167028 0.30866265 0.10345238 0.92896014 -0.47296867 -0.16273293 -0.12964286 0.8349267 -0.5351306 0.5994342 -0.25199544 0.50353485 0.15572795 -0.580264 -0.21386313 0.12822391 0.5707977 -0.018517643 0.5448936 -0.21063131 0.19410223 -0.39327934 0.025067152 -0.4243645 0.1503796 0.2418782 0.65246665 -0.5342854 -0.7074182 0.16713157 -0.5548842 0.21127038 -0.67375857 0.16583166 0.88303757 0.13846308 -0.39865956 0.22540055 0.56854707 -0.40969807 0.66153127 0.4846714 -0.053168215 -0.05227435 -0.25217494 0.45512137 0.81849754 0.3443932 0.34282514 -0.30974117 -0.50513613 -0.19599563 -0.09151587 -1.1783631 -0.4949917 0.18407364 -0.19670978 -0.06511004 -0.45069674 0.41496578 -0.35516623 -0.48025373 -0.5108258 -0.08250665 -0.37509847 -0.13691156 0.4003588 0.20502049 -0.31953898 0.05364015 0.6749409 0.43469644 -0.04820008 0.8734926 0.26803952
be_0 -0.4624037 -1.0261286 0.5192565 0.5203128 1.0275818 -0.37957674 -0.27155507 0.25329822 0.52243084 -0.58412445 1.0772115 -0.22428699 -0.22620128 0.118822925 -0.29899758 0.12014411 0.047985893 0.3224828 0.2688931 0.88414186 0.12802964 0.014352747 0.065948375 0.3487174 -0.4187138 0.56693465 0.8979887 0.39449784 -0.11132309 0.31721267 0.8685921 0.7801917 -0.44357386 -0.19176483 0.10935299 -0.3412791 -0.11296185 -0.6860308 0.05020184 -0.06279548 -0.5767806 -0.50620556 0.16424747 0.78024995 -0.6032416 -0.78988045 0.9072306 -0.35408345 0.022256806 0.13580343 -0.27182585 0.23498529 -0.55092895 0.37749097 0.7010864 0.024469955 -0.26594564 -1.1586177 -0.6442362 -0.11199932 0.1583113 -0.15839103 -0.8753035 -1.3776432 0.8951274 -0.2957612 -0.08382533 0.14012611 -1.0575804 0.25915834 -0.41946307 -0.22505316 -0.061167967 0.16431113 -0.39038083 0.11792825 -0.4806785 0.1708653 0.0289599 -0.36821756 -0.2612468 0.89016175 -0.14270803 1.4155804 -0.072996035 -0.0040974356 0.3288172 0.32633844 -0.9139498 1.3010215 0.44688815 -0.63989216 0.40461618 0.38666457 -0.28749046 0.06767574 0.37130195 0.21575378 0.7261653 0.9407208 0.5195099 -0.43863115 -0.30029875 0.2650308 0.61489135 -0.15412375 0.48427856 0.5976964 -0.23591042 0.8410735 -0.24978325 -0.28605294 0.42718872 -0.121954255 -0.42292124 -0.5734983 -0.5594384 -0.972793 -0.22258985 0.19736634 0.6822098 0.024724133 -0.14557174 1.0014367 0.08325292 0.293433 -0.7799521 0.97119915 0.05477312 -0.16241118 0.39527518 0.38082016 0.89574957 -1.1083587 -0.9260555 0.22399297 -0.23109224 -0.2554615 -0.72384894 0.3086366 -0.20935601 0.4701379 0.33546138 -0.0422005 0.46310583 -0.17296475 0.13477252 -0.03952515 -0.04616038 0.0017132461 0.121253155 -0.27843246 -0.51853883 -0.35635084 0.4879038 -0.90567523 -1.156825 0.14212179 -0.3533056 -0.15127705 -0.30256552 -0.1449297 -0.24905623 -0.45320645 -0.21488425 -0.08875561 0.44602457 0.9467925 -0.0026622228 0.39658764 -0.006847728 0.38890618 1.8441359 -0.09982545 0.1886407 -0.74549806 0.33125067 1.1260232 0.13203298 0.34248695 -0.4488079 0.32207546 0.3967505 -0.40532103 -0.29603073 0.1129183 -0.288286 0.010812848 -0.5675311 -0.5408617 -0.4250983 -0.5618581 -0.76967305 -0.4162443 0.1605302 -0.62311083 -0.34501985 -0.935168 -0.46154475 -0.2950532 1.0189688 0.09423569 0.28034472 0.1667702 0.019737326 -1.1038837 0.57445705 -0.1836724 -0.75423265 0.7665955 -0.3159275 -0.08929166 -0.31039298 -0.16281432 0.11061621 0.38018617 -0.22155046 -0.20957503 0.023070745 -0.28006655 0.23699023 0.071832165 -0.640396 0.54120207 0.027113125 0.8594078 0.24820432 -0.71725535 0.051258598 1.568962 0.21028635 -0.79057133 0.3879583 0.10562267 -0.32890135 -0.030076046 -0.09020406 -0.18567944 0.1559232 -0.21395834 -0.529551 0.18295169 0.56399006 0.24161729 0.6579617 -0.35898006 0.16335711 0.24786678 -0.505728 -0.36612606 -0.8059651 -0.77810335 0.4400205 -0.4008322 -0.6986463 0.46295437 -0.22701804 0.39340162 -0.5718502 -0.09663512 0.6264253 0.24203941 -0.75931543 0.5288343 -0.735041 -0.5831164 0.040739685 0.5973068 0.10239802 -0.005433159 -0.71665335 -0.018105568 0.67875403 0.326579 -0.49156097 -0.5609512 0.13907745 0.4583825 -0.39051646 -1.1972021 1.0873187 1.50496 0.2315089 0.023759939 -0.30271745 0.23132658 0.5132755 -0.44600597 -0.6704287 -0.4670323 0.44690242 0.13094798 -0.221659 -0.27557662 0.75820494 0.50006163 0.1418287 0.8038985 0.19125609 -0.5981775 0.963468 -0.94239795 0.38204277 0.8461622 -0.6868873 -0.23140624 -0.24492058 -1.110173 -4.1256433 -0.3150511 -0.0865337 -0.40753284 0.6344351 -0.54304326 -0.24463345 -0.06670424 -0.54577374 -0.17254916 -0.14077042 -0.30514628 0.38017252 0.046037424 -0.11804554 1.364665 0.24248627 0.16141121 -0.106863946 -0.34489536 0.7253997 -0.5259919 -0.16711311 -0.77671516 0.71616006 1.0368773 0.371272 -0.82738936 -0.76025784 -0.029792763 -0.45102865 0.2793798 0.56131583 0.11128684 0.42642784 -0.44782484 0.045536023 -0.28670904 0.16749822 -0.43709728 -0.3899587 0.68018234 0.41869748 0.34100825 0.7538009 -0.45576745 0.30628932 0.5169714 0.35069335 0.4314292 -0.060481075 -0.27627894 -0.7077274 0.24232939 -0.5346511 -0.11469206 0.7385947 0.20126079 -0.5715624 -0.3880135 0.38790387 -0.5395725 -0.64485145 -0.34649938 -0.42604524 -0.68869233 0.039105017 -0.51104665 0.83242613 -0.19409297 -0.17336991 0.8674103 -0.13501927 -1.0775877 0.29628426 -0.7750086 -0.8657612 0.62695146 0.25104386 -0.35559803 -0.7255707 -0.905481 -0.41357344 -0.24918622 0.46450952 -0.068893254 -0.4331356 -0.14985795 -0.64868635 -0.29152718 0.48103315 -0.1921643 0.45747602 0.13620782 0.5656423 -0.3057202 0.830697 -0.34039295 0.17152415 -0.08011434 0.3588321 0.075159654 0.2972365 0.07399552 0.554735 0.47200537 -0.41030028 -0.15390104 0.52474463 0.4420277 0.454729 -1.4380083 0.8034338 -0.8910323 -0.013207695 0.10088032 0.29547927 0.6910273 -0.1954859 -0.49870571 -0.010678008 0.685737 -0.5963574 -1.0172122 -1.234432 -0.40268975 -0.54729056 -0.19788522 -0.82599944 -0.24523075 -0.38207257 -0.41992566 0.1079934 0.3355037 0.51930237 0.50345904 -0.8967914 -0.22304374 0.39171925 -0.004318431 -0.1960963 0.13797724 0.10011583 -0.41074717 -0.83611643 0.021401105 0.68658054 -0.43278646 -0.15389377 -0.28854078 -0.1030501 0.019502968 -0.5672673 -0.42745543 -0.27516901 0.10959902 -0.083819516 0.16689816 -0.33257234 -0.8932407 0.37469617 0.46771973 0.44503278 0.52552754 -0.18460703 0.6628336 0.07275193 -0.31110346 -0.3950834 0.22997196 0.2745818 0.053570643 0.0024696663 -0.87149185 0.24120978 0.84119993 0.6816956 -0.71564317 -0.52187943 -0.16071987 0.07803721 -0.43305632 -0.17065716 -1.0183251 0.76787376 -0.05096874 0.4662947 0.11698492 0.22771704 -0.2467398 -0.63575774 0.11190507 -0.5275773 0.49758396 -0.84666455 -0.6005758 0.68697774 -0.9500649 0.30746672 0.12694503 0.6914435 0.2122534 0.39160314 0.37840375 0.23693898 0.07632769 0.054377176 -0.41525656 -0.11241852 0.51472247 -0.47243327 0.21815223 -0.2449751 0.13738918 0.14650264 -0.018494628 0.018402275 -0.75159514 -0.2956315 0.5954737 -0.1525069 -0.25500652 0.63982654 -0.1201484 -0.3820328 -0.07882624 -0.44276056 -0.1062783 -0.12583807 -0.14229473 0.19689174 -0.31515688 0.43142086 -0.061687842 -0.58466697 0.9151776 -0.2859324 0.102637574 -0.2558395 0.38096404 -1.5694836 -0.103030965 0.05541544 0.16153577 0.12678608 0.51645786 -0.29000798 0.643486 -0.47361 0.26070562 -0.25652304 0.5948864 -0.95867735 -0.22752568 0.0056137503 -1.6581813 -0.86989295 0.24805391 -0.6870835 0.35079604 -0.12351474 -0.57725334 0.32115358 0.19328456 0.16823974 0.04431023 0.71954906 0.4689644 -0.13323264 -0.8507652 -0.387161 -0.9975704 0.1649226 -0.20042084 -0.22069833 -0.10766098 -0.33447137 -0.6049644 0.3959008 0.35861263 -0.51916605 0.27359256 0.23265669 -0.08641664 -0.8361581 0.029565064 -0.3450721 0.13668077 0.019210238 -0.05567729 -0.17676854 0.28571156 -0.29897472 -0.087495916 -0.15456086 0.24086481 0.33979684 -0.26350105 -0.06224604 0.36716262 0.14714117 0.3415928 0.24690379 1.0517085 0.19741991 0.1868447 0.30407816 0.12001941 0.68601686 0.12621507 -0.29317585 -0.53282744 1.1554294 0.5028773 -0.6350202 -0.120721854 0.2828461 -0.7564077 -0.8827276 -0.10709651 -0.10469953 -0.42968088 0.79894066 -0.044460364 -0.089921564 1.0433494 -0.1866515 -0.5792476 0.41898638 0.11668115 -0.32854947 0.21352753 -0.30403054 0.2519796 -0.74880797 -0.32385626 -0.15236275 0.70058095 0.74654174 0.24103618 -0.43444577 -0.43637225 1.1505929 0.54787934 0.110759065 0.25878772 0.35256964 -0.15173782 1.033789 0.64060134 0.07517165 0.72453105 0.32792774 0.18362242 0.6418662 0.5534469 0.2076931 -0.07875353 0.14024532 0.9778184 -0.16574137 0.45125383 0.61244875 -0.42900762 -0.33662042 -0.05136431 -0.33760443 -0.350947 -0.389258 -0.2885456 0.02671428 0.055983216 0.76320744 -0.52452475 0.37577388 1.1785516 -0.23106007 -0.16332689 0.04803567 0.16469449 -0.29092556 -0.16368762 -0.15902917 -0.1970107 -0.029608367 -0.4060451 0.32359666 -0.33541754 0.7485862 -0.5706424 0.1951487 0.019088939 0.7062557 -0.5510042 0.121549614 -0.3335616 0.56597465 0.47850516 -0.57931614 0.44177806 -0.09054053 0.24765143 -0.004484087 0.8761025 -0.5877153 0.73280454 0.13514893 0.9851118 -0.7267095 0.17702979 0.8817615 0.6763502 -0.5111027 -0.9041579 -0.33352432 -0.15005243 -0.028272638 -0.38165006 -0.4436948 1.1398681 -0.3128871 -0.622252 0.46178734 0.603429 0.0006950712 0.15181023 0.07337432 0.03602273 -0.5898982 -0.91585743 -0.19273682 1.1305832 0.45209402 0.5676735 -0.19583234 -0.59721535 -0.38744175 0.13405848 -0.7654509 -0.06596522 0.30265585 0.66555333 -0.038408022 -0.25219598 1.0278863 0.5294357 -0.38736436 -0.6196699 -0.041663613 -0.47150773 0.15924388 -0.060696226 0.1785385 -0.69136685 -0.098513566 0.8755071 -0.053515837 -0.0092416555 0.4360021 0.5350423
better_0 -0.39917082 -0.60631925 0.47460243 0.044707604 0.64166176 -0.52787006 -0.17643586 0.29934767 0.06567471 -0.30203366 0.2935089 -0.12514083 0.034551717 -0.22523388 -0.30449474 -0.0011129044 0.7965507 -0.35201478 -0.33243245 0.3978791 0.11444432 0.054509472 -0.224908 0.43693918 -0.5560188 0.48523867 1.2449579 -0.18381956 -0.23654926 -0.09436038 0.94906104 0.687809 -0.31408554 0.0018480346 0.2649775 -1.0091531 -0.12061235 -0.4194076 -0.11809965 -0.037872702 -0.35136008 0.26482746 -0.4252016 1.0338135 -0.43127537 -0.1915883 0.2780161 -0.20099042 0.11720762 -0.37097818 -0.19119525 -0.36536565 -0.06258015 0.18302983 0.45031604 0.5625794 -0.0973199 -0.46906668 -0.40073523 -0.36936873 0.16819385 -0.08675031 -0.71498585 -0.60503024 0.44643405 -0.47982234 0.3559045 -0.40494835 -0.86804533 0.06435305 -0.34607574 -0.35115886 -0.011097979 -0.6470459 -0.36490378 0.57507426 -0.3507071 -0.031592526 -0.23423788 -0.482542 -0.20509797 0.32703254 -0.09762932 0.8273457 0.04758712 0.040600948 0.47975603 0.37159392 -0.9866607 0.77464426 -0.23937982 -0.5890347 0.3840861 0.37908587 -0.19520704 0.3733614 0.8136165 0.5444557 0.13514952 0.262752 0.28598124 -0.6526982 0.4061067 -0.08608073 -0.033966444 -0.24757151 0.05554334 0.49889344 -0.28356865 0.89031625 0.24123254 0.74111056 0.3377119 0.15880759 -0.70101887 -0.30624616 -1.1324492 -1.3114828 -0.0676344 0.15254685 0.91422755 -0.08458081 0.21305786 0.9370683 0.056281943 -0.29103512 -0.20791501 0.028708035 -0.32581174 0.20079815 0.780935 0.39363706 0.7280352 0.061077807 -0.9623101 0.35491633 0.18317059 -0.44825554 -1.1146328 0.76063323 0.4336562 0.8105185 0.57204336 -0.032442406 0.29420158 0.09804035 0.28891376 0.065606266 0.17369455 -0.38229495 0.21459988 0.04753889 -0.40843755 0.06535143 0.50604916 -0.38207537 -0.24135518 -0.05578748 -0.20405126 -0.0657239 -0.7430651 0.34041062 -0.081283204 -1.2342309 -0.07809688 0.5850286 -0.17051831 1.1014692 -0.18441609 0.55661476 0.9568868 0.17904834 1.5229656 0.1057308 -0.23900627 -1.0383228 0.6604083 0.78342783 0.7235901 0.3354055 0.04062338 -0.028259292 -0.07319479 0.5108552 0.18270116 0.07361372 0.064956635 -0.50126374 -0.335887 -0.16862617 -0.63114536 -0.1579293 -0.9085028 0.030630147 -0.13310269 0.55910987 0.66504055 -0.4918748 -0.31587103 -0.5947504 -0.38157925 0.22096165 0.16909161 0.5608949 0.024388447 -0.97662574 0.35970017 -0.30982435 -1.1964529 0.8798445 0.038062833 0.6390422 0.3558166 -0.17828333 0.08403467 0.5160937 -0.4589652 -0.057155013 0.37551314 0.13564506 0.15534472 -0.1550359 -0.01729687 0.73929 0.2738755 0.47419816 0.28393728 -0.51637036 -0.07107152 0.4799833 0.7663312 0.016182195 0.15785971 -0.23788385 -0.021244545 0.2094386 -0.4634038 -0.45010275 -0.039635513 -0.038238764 -1.0933245 0.53881884 0.04368718 -0.025068663 0.5306436 0.07657994 -0.4772879 0.0021098629 -0.053171247 -0.43344074 -0.38125226 -1.0946215 0.0014682338 0.49527034 0.052778125 0.44223365 -0.20592469 0.54739773 -0.8239233 0.37113813 0.6487382 0.38202056 -0.2583673 0.43783748 -0.5109459 -0.45588613 -0.22080073 0.8221794 -0.025599306 0.42021435 -0.11904396 -0.5702143 -0.023844153 0.39319047 -0.6662485 -0.8636822 0.18599768 0.10385809 0.092544906 -1.1718487 0.57389444 1.6726459 -0.04350582 0.28394267 0.051721416 0.04769765 1.030766 -0.32076865 -0.64508265 -0.47554746 0.15954399 0.5815713 -0.30905032 -0.30767593 0.6463963 0.60593164 -0.06124282 0.2970422 0.44807535 -0.8303814 1.4701563 0.16140917 0.7583902 0.064963095 -0.7685275 0.403626 -0.49813774 -0.4905811 -4.343468 -0.4367881 -0.03456585 0.21708946 0.6734233 -0.39982054 0.35226727 -0.53987926 -0.7983975 0.23456387 0.3078578 -0.6878339 -0.1910767 -0.37595847 -0.55809724 0.7334398 -0.15480158 0.07216919 0.18124847 -0.11320892 0.267862 -0.5771909 0.020750938 -0.5868484 0.042369425 0.3950683 0.10495755 -0.58097047 -0.7055459 0.38036108 -0.7023361 0.035024773 0.46779147 0.3663476 1.0079647 -0.17888722 -0.38103366 0.17710234 0.58024836 -0.44303522 -0.13038057 0.10190106 0.34164065 0.51596844 0.9595503 -0.7469008 -0.0123874135 0.46094847 -0.07836124 0.57737356 0.3308789 -0.40605536 -0.65326416 0.6551038 -0.44395196 -0.83034647 0.58824056 1.1179948 -0.009757382 0.13063547 -0.95751536 -0.8620191 -0.893904 0.24441671 -0.39657438 -0.5279286 -0.6873132 -1.0150733 0.40062407 -0.12883846 -0.3311519 -0.34088328 0.06483297 -0.92928344 0.46758783 -0.29734486 -1.185554 0.086876325 -0.13550897 0.4936241 0.69909614 -0.55797607 -0.8602648 -0.15957136 -0.19006047 0.54660934 -0.11715871 -0.36219004 -0.73389745 -0.2109226 0.7803477 -0.15752766 0.20231205 -0.20680168 -0.10199912 -0.4528542 0.48210427 0.13559571 -0.10886203 -0.39338946 -0.1660757 -0.26867738 0.18417251 0.19744302 0.27893147 0.05953688 -0.10061228 0.12948215 0.44783515 -0.4389842 0.1783654 -1.0502374 0.96928084 -0.4185087 0.25377837 -0.29045996 0.62505776 0.3796426 0.129293 -0.26612917 -0.25403225 0.8859372 -0.4071285 -0.7386302 -0.6466622 -0.49173868 -0.3380529 -0.77378386 -0.38344648 -0.15609281 -0.37810093 -0.43674725 -0.52299196 0.88993424 0.37726134 0.4199935 -0.9619589 -0.11143797 0.59291047 0.058978423 -0.1840076 -0.058076777 0.20838664 0.021493092 0.17378098 -0.35929692 0.6853001 -0.27127624 -0.0027421042 -0.015361012 -0.33384168 -0.41653198 -0.20099853 -0.4718719 -0.3902896 -0.20042871 0.45638365 0.12709272 -0.36205727 -0.9460042 0.57439995 0.34745714 0.49866527 0.6439377 -0.54062706 0.55537343 0.06908743 -0.5663851 -0.70372355 -0.098633006 0.22386175 -0.31014705 -0.4605313 -0.1457312 0.17135067 0.61007386 0.51701224 -0.35599732 -0.69252765 -0.3971051 0.16987695 -0.7557043 0.18097681 -0.26532272 0.3574164 -0.5347224 0.50353247 -0.3362903 -0.14130037 -0.10225078 -0.02421134 0.2660005 -0.9424838 0.2525664 -0.6270288 -0.31260565 0.3796981 -1.2144867 0.3422832 0.004963614 0.3671808 0.55491406 0.4689054 0.25898352 -0.09526504 -0.47781336 0.78753924 0.024854764 0.0508243 -0.05021675 -1.0106218 -0.26500642 -0.33416128 0.41374275 0.016224816 -0.14466225 -0.26706707 -0.691529 -0.48534963 0.03127217 -0.6490848 -0.41395575 0.28792733 0.32867283 -0.74982077 -0.6119221 -0.25700092 0.14802304 -0.32399052 -0.4953296 0.26269713 -0.6723483 0.37519747 0.12110765 0.40463397 0.6168314 -0.19754374 0.7856219 0.3270563 -0.21973634 -0.83364964 0.3589497 -0.22838517 -0.4851898 -0.24132058 0.25341302 0.21963584 0.7450879 -0.4740003 -0.02102933 -0.09946523 0.36030635 -1.0435101 0.015840724 0.5792259 -1.8104116 -0.9064288 -0.6437494 -0.76311773 0.5017626 0.012646828 -0.1901477 0.3724669 0.06503835 0.4046224 0.16748062 0.59209764 0.1448706 -0.30059 -0.91363794 -0.585834 0.14556494 0.56548715 -0.18034588 0.56315136 0.0013536476 -0.77761376 -0.67369837 0.48660368 0.09408817 -0.77457273 0.14314342 -0.25027788 -0.47747996 -0.9624253 0.14991833 -0.571501 -0.2168437 0.0523394 -0.0061487183 0.45944288 0.56840503 0.068210594 -0.0873207 -0.37644595 -0.33247247 -0.22792818 0.15555447 0.07128088 -0.009901885 0.28087413 -0.37586126 0.29473168 0.8544897 -0.27945518 0.3483122 0.046826217 -0.13920724 0.020222753 -0.1473662 -0.3104167 -0.5797248 0.88624835 0.9246639 -0.7565389 -0.40967888 0.17981319 -0.1143489 -0.082741216 -0.32005805 0.3754298 0.15281126 0.6439103 -0.037123695 -0.1200839 1.4839538 -0.6051464 -0.66603714 0.83680594 0.55658585 0.26439974 0.4700173 -0.6535485 0.14100282 -0.86976427 0.0409732 0.2884671 0.7902109 0.4987409 0.1539866 -0.011392206 0.50124496 0.53807 0.614279 -0.055126246 -0.05349018 0.058459774 -0.23791859 0.6158364 1.1351874 -0.13617568 0.10457957 0.4156003 0.36693737 0.152127 0.1113395 -0.10772025 0.46511844 -0.28592372 1.3068162 0.2672376 0.3594642 0.5951478 -0.14193164 -0.0077326167 -0.08744549 -0.010654591 -0.17304073 -0.33379355 0.20459107 -0.4200109 0.30420703 0.5658834 -0.25183797 0.74817574 1.2418977 0.40492457 -1.0002533 -0.34942922 0.742381 -0.6608478 -0.06346445 0.16386302 0.0008414816 -0.21100837 -0.12375056 0.36341387 -0.10138549 0.07824658 -0.7204836 -0.04788856 0.009327151 -0.41818044 -0.39710826 0.16013572 -0.33962962 0.88770473 0.13461065 0.37910306 0.58502585 0.3418428 0.096179426 -0.17042676 0.39955363 -0.8893674 0.6745182 0.1396105 0.5392228 -0.35863018 0.3247658 0.5849275 0.57189566 -0.48212373 -1.1666384 -0.9050999 -0.103799514 0.2955688 -0.8271236 -0.08480327 0.71523404 -0.4897231 -0.6732126 0.42365345 0.814736 1.2046456 0.52545345 -0.04266589 -0.12860717 -0.8205907 -0.4023433 -0.5001675 0.7363622 0.013481602 0.3035741 -0.20363176 -1.0925311 -0.007392332 -0.17229666 -0.029469527 0.23434997 0.18815714 0.9177 -0.5616895 0.23100834 0.76115954 0.22428459 -0.499726 -0.007474929 -0.35638285 -0.62166494 0.23535979 0.3825897 -0.35835117 -0.12668028 0.10205684 0.42747703 0.21482421 -0.28127182 0.76656175 -0.3633019
than_0 -0.43645287 -0.6843555 0.39568347 0.26899204 0.409269 0.086142376 -0.064561024 0.18186642 0.059062846 -0.18094693 0.9698248 -0.15745398 -0.10226648 0.6930799 -0.8865725 0.6037253 0.105354205 -0.1771838 0.32787144 0.69017065 0.5033288 0.43644398 -0.34873748 -0.17793599 -0.12851362 0.46855998 0.010755982 -0.030323293 -0.5554916 0.5352909 0.04906642 0.027584042 0.21104312 -0.5752348 -0.43768564 -0.54546237 0.1832607 -0.38778037 0.37540817 -0.6646374 -0.94226 0.9408535 -0.5521252 -0.106643744 -0.73438764 -0.29321003 0.22427683 0.39960566 -0.21901926 -0.4563971 0.2257387 -0.98286 -0.022052381 0.08340514 0.9280304 -0.0095724575 -0.20548421 -0.103632286 -0.022579448 -0.07873796 0.2794243 -0.053356104 -0.70752496 -0.05927748 0.7433716 -0.46755475 0.2727621 -0.46173036 -0.3072264 0.013854886 -0.37118515 -0.2651188 0.27844253 -0.82877225 -0.05710084 0.20359308 -0.24809973 0.029413745 0.28931466 -0.296598 -0.0648523 0.4611007 0.065723345 0.12823856 0.1362747 -0.3057301 0.38625467 0.26123804 -0.903279 0.61014247 -0.18396068 -0.5830422 0.27005264 0.29848456 0.18808033 -0.11307773 0.6409675 0.46355677 0.2415957 0.4750687 0.39261115 -0.5316054 -0.0361368 0.14825328 0.36532348 -0.44308922 -0.3548284 0.37896773 -0.290782 0.78989536 -0.019566348 0.612949 -0.37595192 -0.6417117 -0.5332671 -0.49665546 -0.21083622 -0.73592633 -0.3054211 -0.09594033 0.61970305 0.0023913458 -0.119739465 0.14357397 0.21674542 0.52374125 0.20119104 0.06257337 -0.07554908 -0.47818357 0.39630872 0.1899256 0.5240792 -0.6674205 -0.5720303 -0.5381171 -0.12361551 -0.29000795 -0.3883434 0.79979 -0.6819168 -0.31222013 -0.23242706 -0.24055374 -0.00068360474 -0.012338355 0.67931145 -0.3264265 -0.5365647 -0.7312494 -0.14751281 -0.38920167 -0.29903948 -0.07397581 0.45467263 -0.34248763 -0.7447016 0.17215073 -0.39699194 0.036862507 -0.17508411 0.1548135 0.054911107 -0.9636362 0.24193905 -0.2449055 -0.013790184 -0.5077569 -0.18823075 0.15955654 0.32763055 -0.3125435 0.64749324 -0.9564353 0.33916706 0.30243918 0.1718005 0.22057664 0.10040766 0.012366787 -0.29768068 0.9621154 0.043609194 -0.727371 0.28557932 -0.23708352 -0.23455927 0.21146677 -0.25656012 0.12965304 -1.0519471 -0.07857461 0.12572609 -0.15730074 -0.14722064 0.07185972 0.237647 0.13764079 -0.4276555 -0.53477633 -0.30277494 -0.0058063045 0.62469333 0.2626166 -0.06282736 -1.1169512 0.32112306 0.28753853 -0.51325554 0.6896159 -0.08697399 0.8929544 -0.7040042 0.85398275 -0.56076497 0.59846205 -0.16698703 -0.14633209 0.07026196 0.15912908 0.69714046 -0.16424844 -1.0329597 0.3204973 -0.33160546 0.79702455 0.0016518272 -0.07970975 0.011002574 2.092856 -0.17687663 0.5898448 0.6300863 -0.10160756 0.6866019 -0.6527886 -0.23439863 0.13825421 0.8146279 -0.95752347 -0.51618713 0.9591917 0.24399424 -0.18006968 0.6084827 0.5393759 0.14601019 -0.6103908 -0.013143308 0.04587078 -0.37159154 -0.90166587 0.26124716 -0.071000025 0.24395113 -0.10428622 -0.41506755 0.27009544 -0.43712246 0.321016 -0.40110704 -0.22372058 -0.064880565 -0.007044092 -0.33789346 0.1706348 0.16132255 0.67112976 -0.21901558 -0.06508151 0.49861652 -0.27064958 0.5940697 -0.050767213 -0.08073847 -0.2001518 0.058674898 0.6918142 -0.5374218 -0.5141813 0.8799463 0.6382366 0.79335934 0.3840679 -0.6910169 0.20467049 1.2028255 -0.71829224 -0.4529711 0.6984959 -0.20771532 -0.022889052 -0.72838527 -0.22662646 1.0105597 -0.10815506 0.26672745 -0.34852967 -0.15765426 -0.27665275 0.58170867 -0.21380943 0.2165816 0.6442037 -0.18832465 0.027683727 -0.2964305 -0.29821652 -5.0034165 -0.09069778 1.0731194 0.2634344 0.5071713 -0.20758197 -0.15560007 -0.07410331 -0.7328504 -0.13605429 0.08093783 -0.5325916 0.06670035 0.25182775 0.27808845 -0.3437162 -0.24452049 -0.6871694 0.31738728 -0.280141 0.17906046 -0.42626587 -0.050907657 -0.07328447 -0.0046423003 1.7262841 0.188227 -0.86287427 -0.9192121 0.07552969 0.29943198 0.8308702 -0.11500503 0.64479405 0.5084293 -0.21747452 -0.3150922 0.15300624 0.7455679 -0.3216502 0.023458997 -0.341683 0.13050476 0.16731417 1.6037333 0.009471774 0.51669925 0.13828784 -0.49079496 0.2962324 0.20800485 -0.64495 -0.6440132 0.41793784 -0.418257 -0.48681933 0.3602108 0.20437503 0.08474265 -0.32111794 -0.14645065 -0.52186334 -0.38945842 0.2948325 -0.14086626 -0.14099337 -0.95165586 0.07687644 0.24124987 -0.5379382 -0.03884091 -0.2771551 -0.096183896 -0.6480226 0.1568232 0.57744676 -0.7850733 0.09052663 0.18524024 0.5050567 -0.21008413 -0.049254954 -0.504814 -0.4731593 0.059464186 0.11824218 0.331139 -0.2313654 -0.5953694 -1.0303347 0.10936974 -0.25948724 0.1934191 -0.7565449 -0.08307541 -0.16192442 0.49839616 -0.20358157 0.5359831 0.1834491 0.4174581 0.4762156 -0.27863 0.44715232 0.72410786 0.8633281 -0.12950143 0.31401837 0.40969768 -0.6977913 0.11317718 -0.7515639 0.6279588 -0.064468324 0.28850898 0.3038817 0.04180935 0.4345946 0.16401617 -0.245732 -0.4322733 0.7001791 -0.8938354 -0.19618168 -0.5705012 -0.7816486 -0.76736444 -0.38879472 -0.74297434 -0.12635735 -1.0098844 -0.75835943 0.13759388 0.22730257 -0.12786609 0.31385562 -0.5433432 -0.76826996 0.22505638 0.14710775 -0.23876278 -0.02383872 0.11987308 -0.3402226 -0.3956386 0.19108157 0.030070215 0.16117343 -0.04211796 0.05052303 0.4636308 0.22881041 -0.54354906 -0.6651539 -0.25805372 0.4635405 -0.34593335 0.11961253 0.3090673 -1.1989621 0.72946906 -0.09330935 -0.17489888 0.19251648 0.3630961 0.26083675 -0.7460234 -0.2711976 -0.10900322 -0.65846163 0.18856895 0.39798933 -0.37027162 0.0030620047 -0.28868157 0.4754357 0.6860625 -0.0142485835 -0.3083827 0.18298447 -0.43870333 0.32343057 -0.443996 -0.78444535 0.2958219 -0.07248604 -0.065042384 0.02462684 -0.09122588 0.0013146698 0.76486427 0.32728648 -0.48412254 -0.34398463 -0.14772713 -0.02649372 0.43881753 -0.3052557 0.30739737 -0.32388425 0.5507983 0.6786959 0.2685445 -0.011280816 0.15821794 0.03148316 -0.061898306 0.24084093 0.47101486 -0.06264183 -0.24664289 0.21554878 -0.521159 0.43102977 0.70568866 -0.4716379 -0.08568914 -0.04606963 -0.3030317 0.20972237 0.15635028 0.15676567 0.053441435 0.013433339 -0.45621338 -0.3050985 0.08664723 0.26014784 -0.30393216 0.058136627 -0.09909347 -0.847185 0.3187389 0.049187034 0.014214195 1.167258 -0.0812071 0.65189993 -0.45666254 -0.3184661 -0.49936473 -0.5711736 0.051311884 -0.4804491 -0.04250495 -0.114253275 0.57903653 0.6787176 0.11603515 0.38501048 -0.015790861 0.4170691 -0.32755676 0.34984928 -0.25570694 -1.1879724 -1.320326 0.07765451 -0.40097648 0.3450875 -0.29649028 -0.5853498 0.33212358 0.12408213 0.8099644 0.29545462 1.0236342 0.83873594 0.17687528 -0.621925 -0.20641 -0.59727156 -0.0903019 -0.5596848 0.056008764 0.3123188 -0.2753827 0.0008994583 0.8369048 0.047258176 -0.67110145 0.008143508 0.5090541 -0.5806713 -0.8297583 -0.1676604 0.09116206 0.103593215 0.2844276 -0.21256885 0.21315065 -0.1939529 0.2515516 -0.27025822 0.46183044 0.35420918 0.4446367 0.07696037 -0.5302735 -0.18399945 0.5618188 0.38524625 -0.20878556 0.16295342 0.02038411 -0.3260411 0.29948258 -0.4618936 0.3081468 -0.6387101 0.25363603 -0.37006712 0.46782768 0.09521477 -0.7432067 0.06834483 -0.25076166 0.02508112 -0.43652943 -0.5949632 -0.1385244 -0.421847 0.8701389 0.06298806 -0.25155297 0.3425757 -0.5130999 -0.50416714 0.45511398 0.18906988 0.14599745 0.61954623 -0.6039527 0.6622184 -0.35728344 -0.09742339 -0.054052565 0.42832604 0.028651185 0.017361 -0.09076134 0.036844432 0.020286534 0.012904298 -0.008366406 -0.108167276 0.6318524 -0.42880225 0.4195771 0.48738104 -0.046771444 0.19234222 0.18789819 -0.5585941 -0.21084884 0.41399923 -0.042265013 -0.23728564 0.4495728 0.8165399 -0.10986149 1.116374 1.1701634 -0.042065576 -0.38155124 -0.12554394 -0.36093816 0.25580478 -0.042800196 0.24068676 0.71480644 -0.13161731 0.64624 -0.92280835 0.46276885 0.11587886 -0.52792925 -0.43503967 0.13684475 0.87862784 -0.6673104 0.45844793 0.24707742 -0.8097988 -0.35359058 0.15885785 -0.5744509 -0.40239635 0.62554187 -0.20902896 -0.017986035 -0.31814536 0.3333881 -0.17294574 0.566457 -0.18534693 0.18224148 0.09260181 0.5165917 0.4000574 -0.0043437425 0.28010154 0.028214222 -0.22830136 -0.1744321 -0.34755275 0.09033034 0.33335555 0.2552688 0.2076936 0.26841265 0.94590867 -0.4064619 -1.0626303 -0.043820314 0.3521405 0.3720976 0.14601189 0.122661136 0.3921971 -0.6532116 -0.622943 -0.3663354 0.4056741 0.16910304 0.7748025 0.49071276 -0.21219121 -0.33457112 0.0022295918 0.7010416 0.77622145 -0.26990944 0.13901204 0.093467735 -0.5484036 -0.4609635 0.7443575 -0.5179584 -0.7661016 0.10622506 0.4848262 -0.043410044 0.3703362 0.16971192 0.12944734 0.4117533 -0.025232956 -0.68401915 -0.52634984 0.39155692 0.25224516 0.08334709 -0.071417466 0.22711487 0.56351185 -0.08339678 -0.1402678 0.40805158 0.28043967
the_0 -0.72906303 -0.7763036 0.7244779 0.56112915 0.18140772 -0.15968655 0.09464573 0.84778595 0.19167788 -0.5396043 0.9960301 0.1463197 -0.035277553 0.1790831 -1.1643701 -0.22904536 0.5238924 0.5420642 -0.24314035 0.31252164 -0.79722893 -0.12864299 0.023388598 0.56542945 -0.3673353 0.5758436 0.15010229 0.376724 0.111112006 0.09825059 -0.2991535 0.71455324 -0.24869952 -0.48852935 -0.14597613 -0.17829946 -0.79845786 -0.6137236 -0.63563836 0.19198088 -0.82797885 -0.61158717 0.14369456 0.11886301 -0.00062048435 -0.111546785 0.4794318 -0.366018 -0.236386 -0.27988923 -0.36015815 -0.098591946 0.14524843 0.1379413 0.62746674 0.7176045 -0.09510895 -0.95903313 -0.01805344 -0.7666662 -0.28244063 0.37422293 -1.045719 -1.2798202 1.1683997 -0.43388894 1.0868647 1.0090797 -0.9982307 0.19080949 0.1284632 -0.90167564 0.16997525 -0.35109895 -0.17144716 0.10929051 -0.9056611 0.0008524768 0.93189216 0.3209717 0.45664343 0.7783355 0.32240272 1.6504471 0.037792847 0.017908026 0.33670056 -0.12777807 -0.40356547 1.8516495 -0.26649964 0.48882678 -0.46813357 0.38362506 -0.01494333 -0.615412 -0.015199395 -0.59742236 0.73417246 1.0287948 0.39769927 0.6629893 -0.37055093 0.75688916 0.718668 -0.82578206 -0.0051329304 0.39902845 -0.81213284 0.50935066 0.0649561 -0.22427781 0.561672 0.13246663 -0.10663008 0.9923215 -0.1758872 -1.0462146 0.25995368 0.45634925 1.3031666 0.31022477 -0.05026565 0.94151175 0.29388508 0.7937492 -0.06469861 -0.050689504 0.18584333 -0.5364063 0.20871657 0.6274832 1.1934669 -0.8330603 0.17732447 0.09937409 -0.83648926 0.42279464 -0.7172141 0.84518725 0.21344739 0.041652087 -0.49113435 -0.17221159 0.5708327 0.23108134 0.2651302 -0.71295446 0.055683076 0.09129098 0.19897807 -0.071026295 -0.56974465 -0.15997547 0.4224409 -0.2888865 -0.00025024358 0.3290233 -0.09677794 -0.06651976 0.28100082 -0.3164552 -0.14129257 -0.5269658 -0.21107875 0.5145807 0.50383794 0.97667885 0.36815438 0.9160785 -0.047224686 -0.471363 0.98037976 -0.18431634 -0.5808762 -0.27933657 0.13681532 1.7867168 0.30351725 0.39461124 -0.6526413 -0.25107792 -0.55085 0.3655348 -0.0069069755 -0.5845621 1.2679745 -0.3026355 -0.35139564 -0.09493217 -0.49217606 -0.83411807 -0.24866393 -0.47280195 0.26170528 -0.47849414 -0.16806832 -0.6102056 -0.4994621 0.28186205 0.12108502 0.0030442774 0.28748107 -0.0644521 -0.14943452 -0.8002445 0.28798032 -0.09440863 -0.35401377 0.4231358 0.19138461 -0.23470402 -0.28942764 0.3075937 0.6517551 0.25907984 -0.76751703 -1.0483553 0.22073014 -0.42843738 0.6085603 -0.54836524 0.024860902 0.72693807 -0.26293722 2.1370897 -0.29762113 -0.7041689 -0.0123482905 1.1357092 0.2371304 -0.36253223 -0.48182088 -0.48343933 -0.54730326 -0.2680995 -0.48811886 -0.17917821 0.23887612 0.17491189 -0.39629108 0.57256573 -0.003044065 0.29908097 0.2935449 -0.46958756 -0.4878431 0.010544643 0.2699794 -0.6501827 -1.1237321 -0.2618289 -0.20495984 -0.378107 -0.12976481 0.2462239 0.022699386 -0.011431096 -0.05811296 0.7464596 -0.24001393 -0.03821366 -0.7174481 0.7313814 -0.39100623 -0.70459723 -0.29838035 1.2651415 -0.7717411 0.38376954 -0.65825707 -1.2853253 -0.788478 0.30247682 -1.1876398 -1.203951 0.50636494 -0.025154829 -0.25829074 -1.3211551 0.9629587 0.95115185 0.3386818 0.46524325 -0.31225967 -0.54992914 0.45963198 0.19920549 -0.4232663 -0.3401087 0.25660327 0.48594448 -0.5479612 -0.0343476 0.19885679 0.028706696 0.18368486 -0.036630675 0.26178014 -0.95147175 -0.046297193 -0.44690287 0.5513065 0.637709 -0.28913435 0.064224735 -0.22779016 -0.027043723 -3.4600937 0.08711189 0.45829368 -0.20525692 0.6754361 -0.23982109 0.08601829 0.40241146 -0.66846085 -0.3322268 -0.29506668 0.112221345 0.100136496 -0.06603868 -0.2771771 0.123365104 0.08793088 -0.53480786 0.4814878 0.35534257 0.474688 -1.170531 -0.41637254 -0.965829 0.40844336 1.3449719 -0.19044067 -0.13247325 -0.1552091 0.39558378 0.093016416 -0.19367391 -0.8228252 0.62371105 0.010403878 -0.57396454 -0.061126888 -0.016816003 0.0022556055 -0.47767156 0.3429221 0.5512453 0.8397087 0.511485 1.6923773 -0.7573477 -0.15591246 0.009484174 0.11273971 -0.02572383 -0.38044125 -0.89639497 -0.23615396 0.45264882 -0.789977 -0.57331854 0.18696728 0.25360474 0.07075879 0.077438615 -0.013231024 -1.0263354 -1.8406346 -0.4447584 -1.0374404 -0.6989541 -0.051605597 -0.18658295 0.4378679 0.31754172 -0.14757591 -0.37415233 -0.7595784 -1.1550903 -0.305928 -0.23289505 0.3618886 0.19029951 0.7235861 0.29959083 -0.9662496 -0.4209339 0.27397463 -0.030166082 -0.40198952 -0.04016042 -0.4327409 0.53133076 -0.021662708 -0.4982311 -0.067745455 -0.6174983 0.049955763 -0.2090048 0.11778344 -0.32313332 0.36463827 -0.52063096 0.21992323 -0.09334882 0.8434092 0.3201317 0.5894431 -0.25566792 -0.2463839 0.28615308 -0.5984303 -0.0659318 0.7413036 -0.025605671 0.02910122 -1.4010415 0.9013326 -0.48194855 -0.40787265 0.6383193 -0.0041119903 0.8274808 0.42147198 0.52500474 -0.42525595 1.091674 -0.8654634 -1.1834396 -1.2904223 -0.1767421 -0.47676575 -0.6714054 -0.13709068 0.31763896 -0.20056659 -0.48094505 0.287336 0.9713455 -0.420605 0.17289098 -0.5737831 0.7383726 0.035455897 -0.5402848 0.27779037 0.095340475 0.5837495 -0.6074798 -0.23997684 -0.080344275 0.5849575 -0.31469542 -0.5308713 -0.059768476 0.13778162 0.2944445 -0.15543726 0.08183984 -0.5605128 0.020167977 -0.24485284 0.12850137 -0.31946012 -0.5367421 0.06679918 0.9816316 0.65048605 0.63039654 1.0299993 -0.08968146 0.21489313 -0.6132833 -0.31367698 -0.22067651 0.30765122 -0.23589745 -0.40085232 -0.37516877 0.76971257 0.8643845 0.6126674 -0.81400925 -0.7070315 -0.39318284 -0.25770667 -0.2843883 -0.32302767 -0.89963245 0.17940219 -0.5444952 0.05399294 -0.16133861 -0.11312567 -0.1887345 0.31543076 0.41288376 -1.1863099 0.1389182 -1.1852831 -0.9313543 -0.24650897 -0.36925906 0.09569582 0.015571214 0.55812144 0.28452474 0.4714179 0.4870068 0.024187932 -0.09279051 -0.15624541 -0.18335137 0.3186062 0.25679454 -1.0755304 0.21593991 0.0015963688 -0.24182434 0.41429454 0.20507462 0.21916181 -0.3925301 -0.2946993 0.123592556 -0.6957618 -0.07167142 0.17346962 -0.6210947 -0.6327366 0.48716047 -0.28893638 -0.314925 -0.26619685 0.21159235 -0.11404055 -0.26073104 0.61261785 0.11191805 -0.37041312 0.8919033 0.34112087 0.45434865 0.48698175 0.7344983 -0.8450791 -0.40924126 -0.68201524 0.2709437 -0.31877238 0.40541142 -0.21627294 -0.011156484 -0.5988793 0.68018377 -0.4146074 0.1223921 -0.049324363 -0.6522975 0.25176424 -0.70781845 -0.5580996 -0.41525495 -0.808607 -0.025597831 0.050753172 -0.533397 -0.45911536 0.7996117 0.39559612 0.19874488 0.3095181 -0.37640646 0.24995603 0.089225695 0.05072045 0.117236 0.40977952 -0.20163365 -0.24062735 0.21128102 -0.7237506 -0.21064334 -0.10298016 0.19628015 -0.7190914 0.10187144 0.1387968 0.036963213 -0.88305306 0.26073456 -0.3243726 -0.35014075 0.442635 -0.33086357 0.09667864 -0.46395013 0.43460244 0.43570274 0.053166494 0.07823096 1.3135551 -0.21243624 0.059446804 -0.15239938 0.22299616 0.6952092 0.27824283 1.0770178 -0.040085874 -0.46070313 -0.07533826 -0.3110251 0.065967195 -0.030354759 -0.22849925 -1.5927666 0.58881146 0.888491 -0.2901761 -0.065323725 0.22519886 -0.042712986 -0.74478686 -0.34135777 -0.1079816 0.0770002 0.044864323 -0.19396928 -0.25509125 0.71712244 -0.6616849 -0.93602693 -0.09544763 0.7369699 -0.12689053 0.6103399 -0.06257474 0.30149776 -0.24926513 -0.07477111 -0.7057213 -0.36185095 0.123091735 0.45161167 0.13287812 -0.08844219 0.41450778 0.48831093 -0.6117943 0.44853926 0.31021133 -0.15065469 0.72641736 0.030515544 0.45290622 0.07148659 -0.3167244 -0.27106097 0.5067663 0.96735376 0.28073412 0.323687 1.241675 0.34638238 0.7349195 0.5489796 1.2466422 -0.54843104 -0.590328 0.67376775 2.1200627e-05 -1.0304545 -0.13271749 -0.15624057 -0.3767533 0.5424832 -0.10379833 -0.705478 0.21403801 0.47301912 0.09443175 -0.0021985918 0.22650975 0.46701634 -0.12135283 -0.0048253983 -0.3875159 -0.12689325 0.035140388 -0.16834939 0.2645734 -0.54020464 1.3189834 -1.2185152 0.47613582 -0.37623376 0.71050286 -0.17311579 0.6746553 -0.99769133 0.26071376 0.57002383 -0.3370374 0.448506 0.15070902 0.0955576 -0.17449051 0.22091919 0.21700346 0.5537497 0.40941623 1.289768 -0.91171336 0.08703903 0.48626333 0.2176278 -0.24722111 -1.2394186 -0.44848138 0.025016293 0.38336617 0.5645109 -0.26685256 0.8113926 -0.9233387 -0.38475898 0.76713556 -0.8745709 0.35821277 0.6649275 0.9706827 0.4832163 -0.64313763 -0.7116374 -0.29453537 1.5225228 1.2834252 0.47250146 0.08897297 -0.2092871 0.3228886 -0.70600146 -0.72860295 -0.21143942 0.1327817 0.86788195 0.81865615 1.0310183 1.2020361 -0.5880599 -0.86154884 -1.0219221 -0.74767697 -0.29687512 0.4463625 0.081258625 0.28099144 -0.47034281 -0.18236147 0.93326926 0.005048475 0.29753214 0.09309528 -0.17662571
im_0 -1.1158433 -0.90634143 0.81295764 0.44322166 0.05867195 0.04590046 -0.36202195 1.2836134 0.25389406 -0.73379886 1.1197526 -0.4617551 0.37845922 0.62245315 0.2010276 -0.14909561 -0.38215366 0.34907356 -0.15758233 0.56094193 -0.6266518 -0.20100172 -0.07495605 0.4825817 0.77705055 0.08356923 -0.11233528 -0.21861461 -0.9558843 -0.56611425 -0.27439636 0.24133344 -0.4630102 -0.8374531 0.18145972 -0.18889172 -1.0618663 0.03431856 -0.22829914 0.64014196 -0.7853029 -0.8866136 -0.41298246 0.28972182 0.22699565 0.41403306 0.44037867 0.43846074 -0.24022187 0.5008506 -1.2277123 -0.0024592914 0.060931973 0.2364779 -0.08534934 0.6512944 0.26271823 -0.9970077 -0.1181503 -0.13517372 0.052093588 -0.1976065 -0.78330404 -0.8561941 0.056506813 0.108853996 0.35248545 0.16717823 -1.1259973 0.3384511 -0.41711196 -0.06926195 -0.051990166 -0.6616099 0.26587486 -0.23373376 -0.17680503 0.37364087 0.1715954 0.021305233 0.5499727 0.96364343 1.5932282 0.672195 0.16586548 0.14611706 0.059967197 -0.009424013 0.23945656 1.3771088 -0.60512894 -0.02211665 -0.1336175 0.44192907 0.16644622 -1.4619002 -0.73450303 0.057384346 -0.75915074 1.0658449 0.3010713 -0.06659373 -0.18473324 0.44483376 -0.10793618 -0.52141684 -0.22911847 -0.21142903 -0.09220696 -0.03788641 -0.48265922 0.1984174 0.61775845 -0.4347622 -0.35465476 -0.30034137 0.28028226 -0.9788947 0.8706644 0.12705319 0.38123786 0.14941321 0.17468728 1.6913731 0.19204688 0.7911448 0.390991 0.89314586 0.19853736 0.43231547 -0.13924763 0.3300753 0.15016307 -0.08734463 -0.29532504 -0.806076 0.5464841 -1.008664 -1.0545844 0.4063381 0.17643693 -0.010341492 0.026085418 0.9340897 0.6342133 -0.080726214 -0.9760923 -0.058951102 -0.119197235 0.25029674 -0.38410568 0.1778875 0.21154921 -0.2203628 0.25495467 -0.32647726 0.1793909 0.24535218 0.3055092 -0.50945485 0.15461732 -0.26771426 -0.92343426 -0.5226645 -0.06687388 0.0648086 0.5485163 0.27281663 0.36489615 -0.40630293 -0.6788275 -0.806738 0.4954096 0.55061907 -0.25698137 0.23786184 -0.083653904 1.6262573 0.72138596 0.6249753 -0.6930606 -0.04505987 0.4076272 -0.38199615 -0.11625839 -0.0668455 0.5008786 0.08793541 -1.093578 -0.40559357 -0.17267571 -0.085764244 0.11616565 -0.17094235 -0.0049471 -0.64073986 0.40878513 -1.1240909 -0.24065717 -0.09153528 0.20903024 -0.013485719 -0.88236356 -0.34297132 0.22316301 -0.9874452 -0.87043154 -0.4660591 -0.7117669 0.20166233 -0.43391204 -0.74568456 -1.1289719 0.29568362 0.2195314 0.5484221 0.014617108 -0.44613385 0.15560833 -0.08082861 -0.41934967 -0.62929857 0.4035807 0.431227 -0.45783913 1.9957596 0.5596274 -0.84407973 -0.04334881 1.3201329 -0.39131728 -0.19039746 -0.22050235 -0.26529118 -0.95872486 -0.006827689 -0.25754234 -0.88838184 0.6116073 0.338249 -0.29619265 0.44916865 0.49237877 -0.14332138 0.62424934 -0.44056597 0.36079168 -0.13281143 0.21355066 -0.49060613 -0.98745394 0.30137557 0.27367508 -0.16010362 0.22225507 -0.14491332 -0.15671389 0.20075011 -0.20068695 1.2292718 -0.33122194 0.35936493 0.07202698 1.2241442 -0.6701564 -1.5957141 -0.17678894 0.84317464 -0.018329903 -0.048154242 -0.19241582 -0.48415795 -0.99818337 1.1433195 -0.64497787 -0.660631 0.0716712 -0.030425163 0.0218451 -0.10524789 1.0944017 1.2551471 1.0532949 -0.31211245 0.06346641 -0.022234123 1.049742 1.216752 -0.785479 -1.4716045 0.96974516 0.54370195 0.46146366 -0.17635778 0.7841517 0.50988805 0.39083898 0.19417539 -0.34156573 -1.1493111 -0.09915591 0.08193894 0.8956127 0.12657735 -0.49907026 0.63889474 0.39186174 -0.9144408 -2.2932074 0.38354093 -0.830791 0.6294173 0.59760815 -1.0570347 0.5150456 0.3623874 0.07587866 -0.16909787 0.5422984 -0.21094847 -0.31179062 -0.22390632 -0.5434437 0.55503726 0.73125064 -0.60015726 0.24018723 0.085283525 0.7317245 -1.1007283 -0.023357937 -0.3824166 0.58852696 0.86923987 -0.96195954 0.07004675 0.21850905 -0.40847498 -0.4732138 -0.19889194 0.37571424 0.0985625 -0.5839123 -0.6132299 0.11070102 0.09564 0.771255 -1.2498714 -0.03378501 -0.12721568 0.6922091 0.5146307 0.28197613 -0.74137425 0.52907175 -0.5079877 -0.4223611 0.5321328 -0.6649931 -0.09239944 -0.06671744 -0.41983268 -0.10041891 -0.1232829 -0.17879605 1.2396531 -0.38479918 -0.13349397 0.2519695 -0.41167164 -0.9806969 -0.54419005 0.6106307 0.24348967 -1.1334873 -0.71260464 -0.13172804 0.46531713 -0.40990615 0.6680463 -0.05282929 -1.6364931 0.7120614 0.3914841 0.89170736 -0.35196775 0.015024152 -0.09575694 -0.33488265 -1.155454 0.4503059 0.18523122 -0.78579974 0.60018414 -0.17744298 0.5338792 -0.92932934 -0.46046126 1.11469 0.6332388 0.49047965 0.4798612 -0.57005376 -0.58006966 0.47184128 -0.70820683 0.6526588 -0.1936967 -0.16021293 0.7708019 0.67745847 -0.45455378 -0.403493 0.4838683 -0.4393238 -0.19790103 1.0151807 0.265758 0.8552666 -1.2241329 0.8643496 -1.4478208 -1.0488738 0.46822324 0.43881547 0.5718924 0.40640673 -0.3202063 -1.3037206 1.3293768 -0.7921135 -0.38016742 -1.6124697 0.5738557 0.53902316 -0.012565565 -0.3532427 0.19121587 -0.34197628 -0.48526254 0.5955255 0.7505177 -0.05844309 -0.3813488 -0.4940903 0.6087331 -0.7908976 -1.0769601 0.2511581 -0.13416277 -0.29835138 0.11056483 -0.5581858 0.32669523 -0.5955639 -0.2954826 -0.80385995 -0.32990736 -0.47216135 -0.23376597 -0.17257774 0.3121212 -0.08822414 0.28434843 0.102597855 -0.38170028 0.37676743 -0.5539488 0.8886666 1.0558147 -0.5591834 -0.34879842 -0.30212942 0.12490216 0.20742328 -0.40398672 -0.13090779 0.20357893 0.2818737 -0.27011248 0.5368115 -0.4525927 0.3884384 0.41138598 0.21804361 -0.608714 -0.22351354 -0.09740403 0.6980729 -0.057270616 -1.0360732 -0.24686532 0.057888947 -0.44581786 -0.037681963 0.12928 -0.28387773 -0.24422947 -0.77716154 0.55451185 0.24773858 -0.021847414 -0.9105495 -1.2790195 -0.1696954 -0.032100245 0.23051615 -0.00080150366 0.64851475 0.7401324 0.15860382 0.67306083 -0.490247 -0.33342296 -0.5078562 0.884386 0.5163059 0.13349651 -0.07792496 -0.56666666 -0.35761738 0.0858546 0.3169484 0.77224267 0.9246366 0.010774274 -0.8588865 -0.39641976 -0.75456905 0.702919 -0.02499196 0.027971456 -1.1732178 0.88557553 0.20952238 -0.5059162 -0.31914535 0.9032315 0.06591653 -0.7547791 0.56649613 0.08163685 -0.10836885 0.22840685 0.39603424 0.17301065 -0.17091164 0.2608131 -0.4277549 0.004960592 -0.6126705 -0.07072461 -0.07373306 0.05977269 0.20345452 0.37326378 -0.95411885 0.029633284 -0.6169085 0.09145394 -0.522182 -0.4193462 0.5128962 -0.9436658 -0.48805454 -0.818837 -0.9088764 -0.3571855 0.40738863 -0.5779278 -0.561546 0.5380765 0.091641605 -0.13558856 1.5946833 -0.61583996 -0.36189443 -0.13547564 0.96358246 -0.8456124 0.6240368 0.15236743 -1.3788083 -0.122462764 -1.05191 -0.059605584 0.81303704 -0.8472059 -0.62475014 -0.16877134 -0.3272742 -0.003400579 -0.5086137 -0.5660075 -0.64372975 -0.60181946 -0.32202706 0.5486994 -0.3135746 -0.10755664 -0.6249974 0.18350896 -1.4020053 -0.3111022 1.3589517 -0.08370748 -0.8237283 0.6513186 -0.06340967 0.19481853 -0.032466687 0.74845284 -0.97548664 0.42765135 -0.050272133 -0.5697907 -0.76265085 -0.47915605 -0.46978146 -0.7930173 0.77574575 1.338835 -0.1895386 0.10685234 0.38645476 -0.03188564 -0.64822686 -0.09064327 0.34754673 0.053530127 -0.16664568 0.37205455 -0.42812887 1.434077 0.015082568 -1.2226111 -0.0065752435 0.7547639 -0.39254233 0.43925765 -0.04825065 1.1208932 -0.27709386 -0.38454095 0.026259169 0.41078982 0.079776876 -0.5501172 0.10441255 0.22853927 0.45440942 0.2763709 -0.7833596 0.06987883 0.7859361 0.526588 0.22452156 0.20882057 0.019334111 0.69549507 -0.6961495 -0.67811733 0.15533939 -0.7581532 0.4870427 0.29223967 0.8465561 0.990827 0.2095913 0.36926687 1.628164 -1.0534476 -0.85385233 0.67391807 0.037541486 -0.012402445 0.51669735 0.39806172 -0.17633118 0.29406244 -0.08982371 0.07062307 1.0373919 0.7719444 0.10708863 -0.6034555 -0.15119874 0.052129988 -0.9655908 0.29741326 -0.58356535 -0.44942516 -0.4206146 0.6276745 0.5304891 0.09966655 0.030184299 -0.7598181 0.72793126 -0.012199953 0.0028394535 -0.0074000657 0.71993893 -1.6242135 1.1955347 0.17839123 0.15165772 0.0966039 -0.25861937 -0.036648087 0.22759598 -0.58650357 0.94612527 0.9030109 -0.00064232945 0.30723435 -1.1380855 -0.47387758 -0.046289336 0.1555567 -0.23303953 -0.97402066 -0.37556103 0.48380178 0.8382838 -0.55476683 -0.14135021 0.4522774 -0.7118664 -0.8534169 0.515386 0.5033685 0.38098687 0.32484657 0.9566793 0.300086 0.35185987 -0.2797066 -0.2601074 1.6251487 0.98753804 0.56761074 -0.25927913 1.0107913 0.17414884 0.50046396 -0.64601994 -0.15209311 -0.5955263 0.74299294 -0.06752041 -0.0028837267 0.86430573 -0.15963662 -0.8383434 -0.7852071 -0.27962735 -0.8763085 -0.44877273 0.14056188 0.90087736 0.077151194 -0.102496944 0.9449166 0.3235216 0.5518077 0.38733494 0.952227
##ac_0 -0.83661383 -0.113435164 1.0431803 0.35874814 0.8395838 0.25090483 -0.5540315 1.4706495 0.109802045 -0.23340131 1.3690616 0.07086296 0.1655134 0.765828 0.05034511 -0.091027334 -0.20295358 0.38845688 -0.8838565 0.025808986 -0.38800904 0.13091919 0.106750004 0.1290381 -0.06406351 0.1268871 0.047732152 0.025473468 -0.6599816 0.1863212 -0.04349792 0.7408442 -0.4453666 -0.8037233 -0.521647 0.026132137 -0.015253778 -0.19604176 -0.32405087 -0.21132588 -0.2698809 0.07021525 -0.28117743 -0.12766542 0.09925407 0.52611345 -0.19619113 0.28762782 -0.14981261 0.6103006 -0.4640432 -0.09464181 -0.07610666 -0.033021383 0.88675576 0.6808199 0.09395665 -1.2500029 0.27558574 -0.2508673 0.030958276 -0.07183622 -0.4282371 -0.6075843 0.15980339 -0.27830777 0.18235785 0.22978614 -0.21134096 -0.31613082 -0.074764535 0.1493907 -0.4693208 -0.7667595 -0.053380214 0.045750946 -0.37893623 0.32008162 0.76954633 -0.56444037 0.31569389 0.32741645 1.9757985 0.910346 0.29496238 0.06620829 -0.14968327 -0.4648383 -0.7839581 1.3173813 -0.79198736 0.32678965 -0.115512535 0.647547 0.5026089 -1.0880883 -0.31321815 -0.15893038 -0.47753063 0.67781353 0.5436398 -0.45584515 0.30844885 0.23782039 0.016740568 -0.055375233 -0.09589558 0.44179234 -0.023834942 0.21857841 -0.25967258 -0.2490469 0.55027676 0.092387885 -0.6229336 0.28832254 -0.2657679 -0.2198359 0.25894675 0.028465394 0.9099932 0.34229368 0.5852499 0.6250059 0.62094885 0.3642224 0.12953746 0.43517154 0.462308 0.2863065 0.6905891 0.009819578 0.8017819 -0.6093855 0.03870213 -0.51881987 -0.57603997 -0.72386044 -0.017183512 0.20581609 -0.21216834 0.18311389 -0.8806249 -0.2602882 1.1503478 0.032750703 -0.5332625 0.03586565 -0.13812783 0.6238587 -0.17545271 0.2566741 -0.6774139 -1.0468373 0.33516908 -0.03477151 0.08574527 0.7844301 -0.0381255 -0.36402386 0.086801566 0.1435999 -0.30352262 -0.18366112 0.5331794 0.3702995 0.4045372 0.7819896 0.02772392 0.90352815 -0.09966634 0.03035917 0.1883093 -0.059070487 0.13350104 0.07379903 0.58964545 1.2144176 0.8862288 0.3425682 -0.44528794 0.8142627 -0.50412494 0.03435295 0.39171162 0.25965515 0.8037862 -0.6802215 -0.6465285 -0.40799332 -0.6795104 -0.8608691 -0.11406283 0.3557122 -0.3931172 -0.39909598 0.3185074 -0.870944 -0.6442529 0.46530998 -0.24669771 0.38217568 -0.49676228 -0.4403073 0.15291768 -0.16150568 0.35874617 -0.25154835 -0.18052474 0.8138392 -0.36743334 -0.3713988 -0.7083167 0.08601636 0.57744384 0.104279324 -0.36418736 -0.7783752 0.17320098 -0.26704925 0.25829488 -0.6372657 0.19600603 0.677387 -0.9537636 2.0254304 0.07847449 -0.9352666 0.05088858 0.13373783 0.9045235 0.08768807 -0.342182 -0.80187213 -0.91068965 0.40437832 -0.4842038 -0.10916813 0.12242025 0.42010614 -0.41205198 0.3392475 0.61914885 0.30378056 0.07474415 -0.87566113 -0.53574955 0.044745177 0.31297997 -0.5100648 -0.6255829 0.016859762 0.11939955 -0.36428413 0.39140567 0.19574943 0.3829354 0.022374447 -0.25251785 0.95510566 0.3210728 0.47548282 -0.9883125 0.6834444 -0.33323982 -1.0160506 -0.44653553 0.3912916 0.17868201 0.46574667 -0.48270112 -1.0042995 -0.8371731 0.57494736 -0.8997689 -0.051813778 0.3100134 -0.4009598 0.42254293 -0.24042997 0.561055 0.8141055 -0.26977503 0.24523881 0.4994656 0.2732535 0.3305123 0.77296877 -0.34057617 -1.0125256 0.27467155 0.40295815 -0.5698886 0.074971914 0.8914075 0.50738865 0.13088843 0.5064537 -0.2689271 -0.6066592 -0.5052201 0.1336312 0.64676404 -0.1077792 -0.5091271 0.07278826 -0.13975817 -0.9439821 -4.0090694 -0.041336052 0.0887519 -0.045138877 0.03815902 -0.11499317 -0.26745898 0.10653775 -0.62151045 0.5025964 -0.13557918 0.42824212 0.051813804 0.24423203 -0.14177474 0.5164422 -0.8658696 -0.13645533 0.13336821 0.11538831 0.7308013 -0.9904263 -0.06988221 -0.31136096 0.7837167 0.66344357 -0.9501983 0.23967111 0.22135302 0.0822533 -0.46700644 -0.06989696 0.29856893 0.9519092 0.051713686 -0.21659327 -0.25009555 -0.5159192 -0.13685212 -1.060885 0.4734203 -0.36272192 0.087437116 0.8890638 0.896182 -0.9082956 0.39172134 0.10909518 -0.23599407 0.20452128 -0.3398502 -0.31035614 -0.6155769 -0.14436233 -0.3975271 -0.67841613 0.31260103 0.48884696 0.28146294 0.51336277 0.3169025 -0.4816583 -0.7058549 -0.31187317 -0.5664174 0.043172427 -0.918283 -0.19867244 0.3340506 0.31084627 -0.4308833 0.047346175 -0.74117917 -1.3879896 -0.3502887 -0.45835596 0.52849776 0.4195152 0.6434727 1.1646487 -0.52867883 -0.93274194 0.40032142 -0.010423586 0.017610408 0.17290705 0.08965493 0.12404315 0.07903385 0.3707823 0.2784315 -0.70947504 -0.0014189072 -0.26368776 -0.25714657 -0.51865995 -0.14850779 -0.2725392 0.82903993 -0.1962646 0.17592305 -0.3732355 0.694435 -0.43102956 -0.7464604 0.16664237 -0.32394513 0.15795055 0.2899995 0.5497908 0.43237725 -0.9366568 1.078397 -0.7241939 -0.17800036 0.65453845 0.45118684 0.20314524 0.3457851 -0.6081203 -0.66062963 1.3010962 -1.386512 -0.3676664 -0.8338734 -0.06629966 0.17862816 0.5562349 0.0895201 -0.10162184 -0.3778494 -0.1573652 0.02078086 0.51604486 0.34464985 -0.057647444 -0.113827005 -0.06646631 -0.398048 -1.0964257 0.26446298 0.10966855 -0.10478168 -0.4683262 -0.30242735 -0.18094176 -0.04026474 -0.34890714 -0.7656196 -0.12477519 -0.050849073 0.5163258 -0.6590798 0.055196114 -0.20460933 -0.5385671 0.40388104 0.020658977 -0.17703842 -0.41973218 1.028966 1.0070956 0.4404186 -0.09131102 0.44457343 0.04526086 0.35039508 -0.24357517 -0.4052571 0.31276083 0.106898025 -0.31607604 0.63812894 -0.3923026 0.8409867 0.7995572 0.70702875 -1.6755704 -0.27863002 0.5581113 0.4160677 -0.025054917 -0.25903612 -0.97429377 0.48170042 -0.9247063 0.021518163 -0.31129873 0.4580436 0.15328129 -0.36941695 0.06623787 -0.18730254 -0.2666946 -0.83082354 -0.9125036 -0.49139762 -0.6857241 0.5436534 0.35977137 -0.55628383 0.42619848 0.6140256 0.13816085 0.24232182 -0.48217553 0.15073523 0.29224807 0.41696435 0.14190084 -0.11443135 -0.1697168 -0.4425216 0.1873784 0.9241174 0.4245497 0.21909407 -0.28710294 0.28575823 -0.17559469 0.038794175 0.44413534 0.13631056 -0.44680223 -0.46930513 0.5270429 0.544324 -0.5294019 -0.04613038 1.0669646 0.019041616 -0.6677688 0.25502414 -0.47633025 0.24270913 -0.17132203 0.38050643 0.36548805 0.48162758 -0.25260717 -1.3536354 -0.22322646 -0.20318386 0.018436037 -0.1775608 0.2722353 -0.7284952 -0.15319143 -0.8856079 0.16563407 -0.9418357 0.012783767 -0.54977536 -0.9093691 -0.14189962 0.13253377 -0.56349057 -0.38023132 -0.70261717 0.17659701 0.009058848 0.33785972 -0.8613415 0.7443824 0.17923072 0.14767055 0.76634604 -0.3665982 -0.024434105 -0.2717709 0.8462846 -0.086084224 0.49746874 0.6532541 -0.800033 -0.68295354 -0.84523034 -0.18761088 -0.017204672 -0.43718258 -0.7938712 0.26445845 -0.5407227 0.65254736 -0.7006092 0.050933436 -0.61319625 -0.54871136 0.27349338 -0.1807202 -0.5306703 0.13726607 -0.16978645 0.39367837 -0.25634855 -0.5783576 0.9132289 -0.14497772 0.12265222 0.3720736 0.21412101 0.8349135 -0.11104651 0.82111377 0.19573599 -0.4603433 -0.16612822 -0.050862104 -0.45198125 0.6468424 -0.51314896 -0.2711752 0.82540774 1.185712 -0.53883713 -0.5705268 0.6563443 -0.28566915 -0.4091108 -0.5249796 -0.047085922 0.33631682 -0.26238522 -0.39832813 -0.27548546 0.27740535 -0.12100904 -0.9281956 -0.70592463 0.95166105 -0.14939718 0.28335848 0.10804141 0.28069845 -0.15514591 0.28106833 -0.4302465 -0.50969714 -0.46304062 -0.3102094 -0.076805316 0.020140585 0.103684515 0.3490372 -0.5452894 0.16877523 0.3068427 0.1505443 0.27076507 0.030547421 0.60818434 -0.40468284 -0.097035594 -0.70998305 0.046875857 0.10817668 0.009599879 0.2689206 1.1585822 1.1931676 -0.058785617 0.53587526 1.0850296 -1.2867477 -0.49008736 0.38482782 0.02560025 -0.736299 0.43348923 -0.13342707 -0.6824112 0.6967707 0.28792578 0.44389537 0.33615884 -0.12007376 0.3579594 -0.09439203 -0.12933134 -0.15701619 -0.6571882 -0.6065262 -0.24048798 -0.6810436 -0.43708968 0.072864205 0.35370326 -0.1296418 0.36727917 -1.5516843 0.08511007 -0.27343637 0.4402429 -0.054569628 1.1725056 -1.1110686 0.19705747 0.55940574 0.12007235 0.45936823 -0.7315241 -0.32280803 -0.23512548 -0.22075857 0.36620644 -0.12590057 0.3889844 0.91424763 -1.8518379 0.3833535 -0.031340335 -0.33519047 -0.24923876 -1.0077177 -0.21949175 0.32599354 0.34518257 0.13962667 -0.57010704 0.15092647 -0.70957386 -0.6324045 1.2615836 0.023004446 0.28133586 0.54576963 1.1218294 0.16879144 0.28301468 -0.3088264 -0.15884316 0.82525134 0.19670743 0.56200254 -0.04355339 0.020697236 0.0061090663 -0.72394425 0.0037763473 0.37589428 -0.12874448 0.24016115 0.9309751 0.20445728 0.51280403 -0.2770455 -0.3307995 -0.57233995 -0.5009678 0.74009424 -0.3032409 -0.02334268 0.17390087 -0.45013925 0.7314872 0.94849455 0.16938516 0.27774963 -0.22044748 0.10267623
in_0 -0.4209095 -0.35452482 -0.19522132 -0.08565477 0.069133095 -0.6517149 0.29948008 1.2200496 0.22939983 -0.8551961 -0.3476897 0.16763887 -0.40054277 -0.035109207 -0.5397943 1.0708407 0.041512135 0.5532141 0.7249539 0.44622096 -0.09172097 -0.15238541 -0.45152858 0.90934384 -0.17475103 0.8476186 0.41080895 -0.20056131 0.22455174 0.034433894 1.2840289 -0.24515696 -0.5837908 0.014228106 0.22711962 0.5115623 -0.47679165 -0.16960883 -0.9699944 0.7525844 0.09525165 -0.73196644 -0.2664868 -0.33047384 -0.98230416 -0.5435653 -0.22709873 0.4556615 -0.60396594 -0.9734413 -0.25811893 0.17928234 0.329008 0.43908665 0.354709 -0.06484454 0.031099318 0.1548092 -0.9438926 0.36923933 -0.569063 0.5076782 -0.45415142 -0.37590995 0.7775041 -0.041030996 0.78218716 0.32338098 -0.240399 -0.37742636 0.39583918 -0.25307688 0.25615078 0.26956818 0.035450377 -0.8010414 -0.8710958 0.75237054 0.15591684 0.5438952 -0.41135424 0.7705289 -0.042089902 -0.4450824 -0.12875903 -0.54336363 -0.30727786 0.41612625 -0.32257625 0.42430693 0.99866617 0.11371515 0.0939095 0.6032725 -0.06189557 -0.12856236 0.5301859 0.25486827 -0.31592944 0.26129252 0.9164591 0.21366686 -0.8497341 -0.1852372 0.030710079 -0.08638567 0.31863123 0.2911345 -0.16385822 0.43697765 0.081469625 0.08177252 0.42425942 -0.24921037 -0.58400095 -0.30708337 -0.28190857 0.40665478 0.29266778 0.767847 0.53313607 1.1158969 0.1676229 0.40461916 0.27207634 0.18732917 0.40611777 -0.23096357 -0.58438057 -0.8406263 0.049328614 -0.17068247 1.1875302 0.20065156 0.012969784 -1.1433027 0.045681298 -0.9493824 -0.92762727 -0.94500345 -0.9495489 -0.0154829845 0.7700923 0.462704 -0.41507572 -0.51491463 0.020569552 -0.5482605 -0.45347846 -0.40517017 0.55358875 0.7781474 -0.57052416 -0.4359269 0.16398072 -0.60588545 -0.12431581 -0.0015598163 -0.56615114 -0.33378917 0.27209628 -0.5001911 -0.39786637 -0.08186416 0.029677391 0.2945985 -0.20987502 0.8072211 -0.15835048 0.46742007 -0.46490484 0.32976845 0.26926327 0.39709118 -0.2068395 -1.2577077 0.19540066 0.48700085 0.23137908 -0.61341566 -0.3117935 0.33898115 0.35739115 -0.267779 1.1376175 -0.75215304 -0.584989 -0.4622297 0.72066784 -0.89812845 0.27648777 -0.93845105 -0.46409842 -0.14957961 0.24254535 -0.09402621 1.149008 -0.9309387 -0.2518313 0.18335104 -0.5223539 -0.20022944 0.3750137 0.07633247 0.39492917 -0.41215658 0.13404188 -0.2027108 -0.47109878 -0.67535806 0.15892531 0.028065577 0.27780312 0.32734638 0.17871507 0.5013798 -0.24586403 -1.0370774 0.65710294 -0.5748139 0.3838994 0.09776133 -1.071395 0.25923124 1.1912935 0.60186225 0.23114857 0.07766943 -0.075350694 1.2336886 0.058751717 0.05590182 -0.1893624 0.62902987 0.36285698 0.15893434 -0.56894207 0.6068906 0.6568031 0.032642197 -0.4025445 -0.050461564 0.49061424 0.3644471 0.5972943 -0.04775091 -0.7782359 -0.3252396 -0.7654122 0.6017303 -0.26115575 0.11792935 -0.21796212 -0.23186147 0.34220663 -0.5795215 -0.06287912 -0.6995933 0.25420547 0.12941644 0.47039405 0.61605656 0.36373138 0.05073251 -1.2937528 0.31398925 -0.7043507 -0.07981619 -0.052022874 0.7927691 0.70573276 -0.1941964 -0.43699822 0.5745554 -0.6726893 0.6844719 0.067610756 -0.26281694 -0.7383485 -0.37111813 -0.7522948 1.2267787 -0.9238261 -0.1698901 0.6649356 -0.6525095 0.4604986 -1.5269028 -0.5017993 -0.5240389 -0.13816968 0.58329684 -0.42534867 -0.37963146 -0.28208315 -0.32493603 0.17106491 -0.8688099 0.7341781 0.3978417 0.2729179 -0.36575174 0.89114434 -0.15512215 -0.63350827 -0.38531953 -0.45420888 -0.03112912 -3.7596016 -0.15845922 0.028699605 -0.16375741 0.9401186 -0.31629217 -1.3173218 0.41473964 -0.68175966 0.47547737 -0.22765227 -0.41229 -0.23400262 0.08786549 0.2671322 0.0041088536 -0.054939084 0.47229934 0.28193018 0.66194445 -0.5690131 -0.47892612 -0.47387555 -0.67730117 0.15797131 1.2381246 -0.82273275 -0.66135055 0.17008096 -1.0251198 -0.11517549 0.100236274 0.14615305 -0.15851086 0.30055484 -0.2919369 -0.8332991 -0.17720899 0.35666654 0.13607551 -0.02232512 -0.3745362 -0.07974412 -0.2618369 0.7705093 0.46608818 -0.11657759 -0.5449924 0.897936 -0.17813616 0.4465295 -0.20411299 -0.54152024 0.19154185 0.3887241 -0.31683528 -0.32005537 0.63698584 -0.064383 -0.94348943 -0.54460394 0.2430709 -0.40372905 0.26360577 -0.53683954 0.3514445 -0.45456117 -0.48334575 0.3266867 0.27041173 -0.1367285 0.64419764 -0.32962707 -0.8960862 0.41776416 -0.5243666 0.5557102 -0.6052823 -0.40936178 -0.15512373 -1.0771868 0.17317964 0.3088805 0.25234368 -0.096110046 -0.28196618 0.54136306 -0.21820098 0.49763113 -0.57380855 0.9143528 -0.1713464 0.34580857 -0.34049225 1.0442188 -1.0653933 0.3557718 0.059887387 0.6002689 -0.14018595 0.5947182 -0.20640756 0.38173783 0.14767933 0.33015123 0.65861684 -0.42216393 0.9667283 0.24329028 -0.48225468 0.40468767 -0.9457094 0.4361116 -0.28240478 0.49853575 -0.856326 -0.38903865 0.067986116 0.8363649 0.0922264 -0.24684161 -0.0035644742 -0.48599494 -0.9281661 -1.828718 0.37328994 -0.65103066 0.0102291 -0.070009016 0.4739207 -0.6862818 0.26223296 0.03080632 0.39693946 -0.49707627 -0.6931096 0.029416386 1.0249679 -0.49325675 0.09320639 1.0483183 0.91206807 -0.23800468 -0.51398134 -0.23707713 0.17624807 1.2422493 -0.029961657 0.36924943 0.47529924 0.38050514 -1.0385479 0.38490868 -0.45959488 0.8926688 -0.024757832 1.424734 0.6365888 0.048983265 -0.40448704 -0.058947787 0.39633244 0.7655067 0.41536507 0.7323252 0.13293555 0.54260343 0.09892076 -0.42801547 0.44155693 -0.74692047 0.30086535 -0.9688259 -0.20010832 0.6892788 0.33317277 -0.27192536 -0.030219415 -0.083804525 0.035103485 -0.09357777 -0.25038764 0.24348894 -0.14712188 0.11753406 -0.94834995 0.19166778 -0.4204038 0.35488737 0.02208674 0.26544327 0.5631314 0.7176176 0.2564293 -0.4065734 0.6280986 0.26409158 -0.4226964 0.30198184 -0.057458356 0.4336119 0.18310668 -0.80912566 0.5296881 -0.70175517 0.7825982 0.7749139 1.6221157 -0.507694 0.3674595 -0.6154546 -0.30190217 0.46358952 0.44808468 -0.43290517 -0.7374967 -0.16453326 -0.8734545 -0.828828 -0.35570404 -0.081336424 -0.18032804 0.31026536 -0.052628867 -0.77970487 -0.07289585 0.06034682 0.25058043 -0.48969075 -0.54382855 0.26031998 -0.33278218 0.946234 0.298199 -0.46646333 -0.3147034 0.11810981 0.93714756 0.3463933 0.38359407 -0.10695165 0.4736895 0.5514282 0.07126809 0.18040687 0.8011778 -1.106003 0.48858938 -0.34377572 -0.013487838 -0.19597939 -0.40253636 -0.71624374 0.09060663 0.89363 -0.5426153 -0.5958157 -0.38090888 0.6806163 0.28055108 0.677613 -0.7137524 0.32525158 0.06658407 -0.30282605 -0.4216137 -1.2615845 -0.10931575 0.24869125 -0.3322343 -0.13137577 -0.7581253 0.1997412 -0.825794 -0.1920507 -0.5354236 -0.027679097 -1.0002708 0.58937764 -0.9005425 -0.6153106 -0.32621393 -0.43704796 -0.54733294 -0.8879693 -0.027549999 -0.5740317 0.3156678 -0.38695446 0.17556047 -0.5910096 0.68390507 -0.9047541 -0.18670808 0.35548437 -0.5714488 0.60139865 0.43459594 1.0688419 0.14707352 -0.13541976 0.3733132 0.09329419 0.28540283 0.5915017 -0.6229498 0.009208005 0.18404865 0.4326349 0.43777648 0.3098737 -0.83994615 0.19484498 -0.12968263 0.39050472 -0.57348925 0.051346064 0.36142015 -0.13703935 -0.21091601 -0.40256196 -0.79597825 0.7770385 -0.12850952 0.9082851 0.92667305 0.068761185 -0.11081721 0.046921693 -0.63418025 0.50750166 0.7570952 -0.3424956 0.7936091 -0.09012258 -0.39132804 -0.3097237 -0.80406594 0.06319309 -0.49952754 -0.37052658 1.2437944 0.009382471 0.30383116 0.656992 -0.7045504 -0.7264339 0.21506938 0.27909327 -0.17332248 0.6093049 0.23797333 -0.19041145 -0.2506342 0.020563398 -0.33956805 -0.23052105 0.22800817 0.16694853 0.8054421 0.57461417 -0.39199638 0.43725032 -0.100585386 0.8866074 0.0379007 0.6786766 -0.0841036 -0.6689614 -0.15915518 0.3421945 -0.9486118 0.35356876 0.1892349 -0.3940781 0.85036033 0.5773677 -0.29404572 -0.05957678 0.24545386 0.9355259 -0.5210123 -0.6045345 -0.08666277 -0.06264725 0.23504126 -0.21629463 0.44337034 0.21594112 -0.9558285 -0.071869835 0.17491204 1.8792633 -1.4952881 0.37377813 -0.42184198 0.38220298 1.541846 -0.79644746 0.19244447 -0.72712713 0.32684013 -0.0056574065 0.17683282 0.31749886 0.8396998 -0.09778831 0.66473544 -1.0301017 -0.4945126 -0.007070843 0.4528978 -0.3183481 -0.69661194 0.2626674 0.026662141 -0.12100102 -0.48757893 0.050663527 0.20499685 -0.31488356 0.78303564 0.7772281 -0.7610284 -0.022138514 0.51427746 0.5551908 -0.29189608 -0.033197228 -0.427436 -0.08388215 0.24012096 -0.64990795 0.123307936 -1.3517694 0.45630363 -0.1597333 0.51558083 0.16458258 -0.6937261 -1.2411292 0.22499183 -0.6092976 -0.44285524 0.47172275 -0.06948588 0.32338944 -0.097296 0.31106827 0.34868437 -0.23428383 -0.6284711 -0.5268351 -0.17866103 -0.27139318 0.7904352 -0.067782626 0.54444706 0.20666853 1.0292156
